tree
version=v4
num_class=1
num_tree_per_iteration=1
label_index=0
max_feature_idx=9
objective=binary sigmoid:1
feature_names=tokens_length isdigit num_entities question_type_id retriever_id Chunk_size Chunk_overlap k answer_model_id Reranker
feature_infos=[5:16] [0:1] [0:3] [0:2] [0:2] [400:800] none [3:5] [0:1] [0:1]
tree_sizes=2001 3416 3380 3393 3399 3428 3386 3386 3361 3398 3386 3408 3390 3408 3415 3408 3384 3380 3424 3406 3397 3390 3409 3401 3387 3391 3421 3416 3393 3405 3434 3408 3402 3420 3427 3420 3422 3407 3410 3419 3436 3403 3384 3388 3392 3429 3408 3402 3399 3389 3404 3414 3388 3413 3406 3413 3410 3394 3409 3424 3408 3425 3418 3386 3426 3407 3394 3408 3414 3412 3417 3395 3427 3410 3445 3428 3412 3445 3392 3399 3405 3445 3441 3416 3419 3426 3440 3413 3432 3411 3423 3484 3412 3417 3402 3401 3440 3432 3427 3457 3431 3408 3423 3413 3430 3443 3414 3412 3439 3452 3446 3414 3455 3439 3449 3433 3459 3477 3441 3453 3450 3506 3432 3435 3433 3446 3477 3476 3435 3429 3450 3455 3516 3456 3446 3455 3441 3447 3489 3449 3479 3467 3453 3461 3481 3481 3449 3497 3468 3449 3466 3436 3463 3485 3456 3466 3436 3464 3455 3459 3465 3467 3456 3489 3467 3455 3441 3487 3462 3483 3461 3458 3483 3455 3474 3479 3447 3504 3474 3445 3459 3509 3483 3467 3485 3480 3472 3484 3498 3447 3481 3480 3468 3475 3457 3487 3471 3483 3464 3479 3474 3484 3487 3464 3480 3478 3498 3473 3510 3479 3478 3482 3503 3506 3481 3483 3527 3511 3493 3488 3477 3558 3482 3464 3482 3501 3493 3505 3511 3516 3452 3496 3493 3492 3486 3497 3478 3507 3536 3498 3488 3470 3490 3471 3517 3501 3491 3488 3501 3470 3534 3476 3500 3507 3477 3521 3513 3497 3474 3477 3507 3496 3501 3505 3508 3481 3507 3468 3468 3520 3509 3466 3496 3500 3484 3489 3488 3501 3516 3495 3537 3502 3515 3495 3495 3500 3524 3504 3535 3521 3496 3472 3504 3516 3522 3485 3516 3521 3528 3526

Tree=0
num_leaves=18
num_cat=0
split_feature=9 5 7 3 5 3 3 3 7 3 3 3 3 3 3 3 3
split_gain=104.793 68.3371 82.4723 3.23498 2.94657 1.81268 0.779517 2.18182 0.625179 1.05227 0.553445 0.248276 0.0475073 0.0249365 0.0226891 0.00488951 0.00146009
threshold=1.0000000180025095e-35 600.00000000000011 4.0000000000000009 1.0000000180025095e-35 600.00000000000011 1.0000000180025095e-35 1.5000000000000002 1.0000000180025095e-35 4.0000000000000009 1.0000000180025095e-35 1.5000000000000002 1.0000000180025095e-35 1.5000000000000002 1.0000000180025095e-35 1.5000000000000002 1.5000000000000002 1.5000000000000002
decision_type=2 2 2 2 2 2 2 2 2 2 2 2 2 2 2 2 2
left_child=1 8 11 -4 5 -2 7 -6 9 -1 -11 -3 -13 -10 -7 -15 -5
right_child=4 2 3 16 6 14 -8 -9 13 10 -12 12 -14 15 -16 -17 -18
leaf_value=0.020879079242483292 0.066666625826447806 -0.10000003973642917 -0.03750004144385384 -0.0067164596247357659 -4.1723250612493365e-08 0.044999958679080722 0.0397058409429243 0.033333291830840647 -4.1723250612493365e-08 0.0092714814726362754 0.00050247083961362871 -0.088636403798686855 -0.0919355239149304 0.0021126343339742128 0.04285710149881862 0.0029411347490563254 -0.006250041715489589
leaf_weight=13.650000214576719 10.800000071525572 7.200000286102294 9.6000002622604352 40.20000085234642 6.0000001192092887 30.000000327825546 20.400000244379044 27.000000357627869 12.000000238418577 45.300000816583633 29.850000590085983 26.400000989437103 18.600000709295273 42.600000828504562 21.000000238418579 30.600000590085983 28.800000607967377
leaf_count=47 24 48 48 168 24 84 60 84 48 170 119 168 120 168 60 120 120
internal_value=-4.17233e-08 -0.0153544 -0.0426606 -0.0103054 0.040625 0.0480582 0.0320224 0.0272727 0.00517237 0.00810807 0.00578838 -0.0913794 -0.09 0.00211263 0.0441176 0.00245897 -0.00652178
internal_weight=420 304.8 130.8 78.6 115.2 61.8 53.4 33 174 88.8 75.15 52.2 45 85.2 51 73.2 69
internal_count=1680 1344 672 336 336 168 168 108 672 336 289 336 288 336 144 288 288
is_linear=0
shrinkage=1


Tree=1
num_leaves=31
num_cat=0
split_feature=8 9 7 3 0 0 9 7 0 9 3 2 0 7 2 3 0 2 7 0 2 7 2 0 9 3 2 3 2 3
split_gain=526.826 105.865 23.642 7.54951 6.69972 5.86756 4.32942 7.56962 2.4217 1.76026 2.48362 1.82481 3.02525 2.6049 0.925708 0.873272 0.807259 0.638536 0.618546 1.08981 0.615248 0.614278 0.582324 0.500543 1.52062 0.448475 0.336365 0.73701 0.360886 0.138004
threshold=1.0000000180025095e-35 1.0000000180025095e-35 4.0000000000000009 1.0000000180025095e-35 9.5000000000000018 11.500000000000002 1.0000000180025095e-35 4.0000000000000009 5.5000000000000009 1.0000000180025095e-35 1.5000000000000002 1.5000000000000002 7.5000000000000009 4.0000000000000009 1.5000000000000002 1.0000000180025095e-35 9.5000000000000018 1.0000000180025095e-35 4.0000000000000009 7.5000000000000009 2.5000000000000004 4.0000000000000009 1.5000000000000002 11.500000000000002 1.0000000180025095e-35 1.5000000000000002 1.5000000000000002 1.0000000180025095e-35 2.5000000000000004 1.5000000000000002
decision_type=2 2 2 2 2 2 2 2 2 2 2 2 2 2 2 2 2 2 2 2 2 2 2 2 2 2 2 2 2 2
left_child=3 2 26 5 8 6 7 -1 -5 10 11 12 13 -10 17 -4 -17 -11 19 -12 21 -13 -18 -6 -25 -19 -2 -28 -29 -3
right_child=1 29 15 4 23 -7 -8 -9 9 14 18 20 -14 -15 -16 16 22 25 -20 -21 -22 -23 -24 24 -26 -27 27 28 -30 -31
leaf_value=-0.022050776822300985 -0.00099777722695648945 0.090357889948774639 0.025784933855566367 -0.099726175666233485 -0.099717033801197313 -0.099392892742499864 -0.0023342850319918286 -0.099080019486195159 -0.053050796180175365 -0.066374246493011588 -0.062387833359234507 -0.098114604111561587 -0.036469309733503312 -0.099885523606440998 -0.074242717684893211 0.035297034673829455 0.053919354568971269 -0.051978434814088828 -0.099917874247362704 -0.097819000132163714 -0.063480232963458991 -0.074863334701384954 0.040541989316395514 -0.098895291112313266 -0.06043669817444134 -0.030671076020535648 -0.0067908955702352392 0.012352084830567753 0.0011575873114732568 0.094786770804240028
leaf_weight=7.7927056849002891 41.373742058873177 46.778621762990952 14.397891283035277 7.1965233087539664 31.184804648160934 4.7966733276844016 5.9953367710113517 5.3990512490272522 6.5946204960346222 4.1982025504112253 4.1962017267942429 5.3946462571620923 9.5952113568782806 5.399966686964035 5.3978154063224784 58.799654588103294 11.699934557080267 5.9976487457752228 8.0999520421028137 4.4952522218227386 4.1981914341449729 5.9999599158763885 26.699841320514679 8.9952826201915723 3.5984376668930045 4.1981697082519531 9.7414191365241987 22.934690773487091 10.493530496954916 28.187991350889206
leaf_count=36 168 72 48 48 208 32 24 36 36 24 24 36 48 36 32 180 30 32 54 30 24 36 78 60 20 20 41 85 42 40
internal_value=-3.02849e-07 0.0414843 0.0221679 -0.0756217 -0.0805613 -0.0499306 -0.0375653 -0.0535769 -0.0720405 -0.0693395 -0.0740167 -0.066809 -0.0573956 -0.0741358 -0.0565845 0.0372771 0.0389794 -0.0499626 -0.0899772 -0.080713 -0.0798428 -0.0858714 0.0446179 -0.0963195 -0.0879064 -0.043205 0.00222375 0.00531127 0.00883799 0.0920232
internal_weight=419.832 271.107 196.141 148.725 124.741 23.9838 19.1871 13.1918 80.9624 73.7658 53.974 37.1826 21.5898 11.9946 19.7918 111.597 97.1994 14.394 16.7914 8.69145 15.5928 11.3946 38.3998 43.7785 12.5937 10.1958 84.5434 43.1696 33.4282 74.9666
internal_count=1680 784 672 896 768 128 96 72 480 432 324 216 120 72 108 336 288 76 108 54 96 72 108 288 80 52 336 168 127 112
is_linear=0
shrinkage=0.05


Tree=2
num_leaves=31
num_cat=0
split_feature=8 4 4 4 4 5 3 5 0 0 5 0 0 0 7 0 7 3 7 0 0 0 0 7 0 7 5 7 5 0
split_gain=476.31 297.683 279.824 17.856 25.4559 20.0015 15.5519 12.3397 11.19 6.58478 6.13265 3.39778 6.10871 3.29934 2.67808 2.01447 1.37612 1.30585 1.16209 0.367806 0.218301 0.185795 0.165437 0.141631 0.0940713 0.0422129 0.0381687 0.0308519 0.0325841 0.0306701
threshold=1.0000000180025095e-35 1.5000000000000002 1.0000000180025095e-35 1.5000000000000002 1.0000000180025095e-35 600.00000000000011 1.0000000180025095e-35 600.00000000000011 8.5000000000000018 7.5000000000000009 600.00000000000011 9.5000000000000018 7.5000000000000009 9.5000000000000018 4.0000000000000009 10.500000000000002 4.0000000000000009 1.5000000000000002 4.0000000000000009 9.5000000000000018 7.5000000000000009 9.5000000000000018 7.5000000000000009 4.0000000000000009 10.500000000000002 4.0000000000000009 600.00000000000011 4.0000000000000009 600.00000000000011 8.5000000000000018
decision_type=2 2 2 2 2 2 2 2 2 2 2 2 2 2 2 2 2 2 2 2 2 2 2 2 2 2 2 2 2 2
left_child=3 2 9 4 -1 6 -6 20 14 -2 15 12 -7 -12 -8 16 -11 22 -10 -19 -4 -22 -9 -23 29 26 -3 28 -5 -24
right_child=1 25 7 27 5 11 8 17 18 10 13 -13 -14 -15 -16 -17 -18 19 -20 -21 21 23 24 -25 -26 -27 -28 -29 -30 -31
leaf_value=-0.094957884201843368 -0.099780886331896274 -0.10048795991832574 0.097152550650642169 -0.096660576903507225 0.042558139810691002 -0.095507741295566703 0.016377367641047857 0.067623898179342459 -0.09550400104633304 -0.038069421069979882 -0.048674627311766555 -0.094766699454444533 -0.033342252770642171 -0.098445665808816696 -0.024514848240307193 -0.053697512913857964 -0.0021469563786016737 0.07033978259575209 -0.061517837379063051 0.081138128791568939 0.089324575750865567 0.097772293611531003 0.061180066115706672 0.092329465520244847 0.064413650463275615 -0.10165152485993004 -0.095719007301446085 -0.097088849010869907 -0.092246867658680426 0.057278068736036351
leaf_weight=33.48617722094059 8.9940205812454206 8.3996805548667908 33.692836999893188 8.3875675201416016 8.3930999636650068 6.7293921560049119 6.5943268686533019 14.073017671704291 3.5920023024082157 4.7997536063194293 5.9940953701734561 11.204790502786635 9.5739874839782697 7.4911406636238098 10.192457109689713 6.298558995127677 5.9971063137054443 14.664328664541246 8.3903917968273163 17.059571519494057 31.145966649055481 18.149134188890457 9.1317955553531664 35.005254998803139 13.475927934050558 16.794740855693817 8.383012518286705 33.552370950579643 8.3388244211673737 11.22781480848789
leaf_count=224 60 56 45 56 24 45 24 30 24 24 32 75 48 50 48 34 24 30 48 30 48 25 21 50 30 112 56 224 56 27
internal_value=-6.59654e-08 0.0394602 0.0591847 -0.071984 -0.0595724 -0.0412499 -0.0173263 0.0834867 -0.0347969 -0.0621731 -0.0511123 -0.0735697 -0.0590017 -0.0763228 -0.00845122 -0.0312257 -0.0181163 0.0682783 -0.071706 0.0761466 0.0937507 0.0923911 0.063068 0.0941879 0.0611731 -0.0998793 -0.0981059 -0.0962144 -0.0944602 0.0590282
internal_weight=419.213 270.778 237.2 148.435 98.1566 64.6704 37.1623 197.626 28.7692 39.5747 30.5807 27.5082 16.3034 13.4852 16.7868 17.0954 10.7969 79.6325 11.9824 31.7239 117.993 84.3004 47.9086 53.1544 33.8355 33.5774 16.7827 50.2788 16.7264 20.3596
internal_count=1680 784 560 896 560 336 168 336 144 224 164 168 93 82 72 82 48 168 72 60 168 123 108 75 78 224 112 336 112 48
is_linear=0
shrinkage=0.05


Tree=3
num_leaves=31
num_cat=0
split_feature=8 4 4 4 4 5 5 0 5 0 0 0 2 2 2 0 7 7 1 2 0 2 0 0 0 7 5 7 5 7
split_gain=431.976 269.608 253.659 16.3089 23.3346 18.2257 11.3254 5.98085 5.5798 3.13425 5.59576 3.01163 2.6533 2.31966 4.56365 1.81801 1.24226 1.02435 0.620425 0.464455 0.200193 0.194698 0.18629 0.107979 0.0370369 0.0311396 0.028301 0.0230877 0.0244506 0.0189646
threshold=1.0000000180025095e-35 1.5000000000000002 1.0000000180025095e-35 1.5000000000000002 1.0000000180025095e-35 600.00000000000011 600.00000000000011 7.5000000000000009 600.00000000000011 9.5000000000000018 7.5000000000000009 9.5000000000000018 1.0000000180025095e-35 1.5000000000000002 2.5000000000000004 10.500000000000002 4.0000000000000009 4.0000000000000009 1.0000000180025095e-35 1.0000000180025095e-35 7.5000000000000009 2.5000000000000004 9.5000000000000018 9.5000000000000018 7.5000000000000009 4.0000000000000009 600.00000000000011 4.0000000000000009 600.00000000000011 4.0000000000000009
decision_type=2 2 2 2 2 2 2 2 2 2 2 2 2 2 2 2 2 2 2 2 2 2 2 2 2 2 2 2 2 2
left_child=3 2 7 4 -1 12 20 -2 15 10 -7 -10 -6 24 17 16 -9 -15 19 -8 -4 23 -21 -22 -14 26 -3 28 -5 -13
right_child=1 25 6 27 5 9 18 8 11 -11 -12 29 13 14 -16 -17 -18 -19 -20 22 21 -23 -24 -25 -26 -27 -28 -29 -30 -31
leaf_value=-0.09088913993838614 -0.095059213497628206 -0.09566124157180271 0.09279346652188214 -0.092363685332731593 -0.046539749380796469 -0.091368588538710105 0.070456206505192298 -0.036171261814178117 -0.04630039384296903 -0.090725837031783552 -0.031730047397708412 -0.091381180637429421 0.002627491446741472 -0.022435248600386523 0.0092116690263240233 -0.051013384191667246 -0.002039514490393492 -0.054173278011175274 0.075822607521234806 0.063232272807910384 0.084666947282126703 0.092850562780920354 0.057000179294390198 0.088745472647935128 0.007975617011251936 -0.096659584151530142 -0.091545906658588458 -0.09273606857258461 -0.088525402249411911 -0.096422930921034544
leaf_weight=33.241701871156693 8.9691802412271482 8.3825865685939789 33.515768885612488 8.3399578183889389 6.1309132426977149 6.6835986971855226 16.847071409225464 4.7990516275167483 5.9865599423646945 11.120635658502577 9.5578216612339002 3.7165066748857498 5.9936380088329333 4.0329339653253573 7.031664475798606 6.2984304577112189 5.9973755776882172 6.8783648312091827 11.486487507820128 31.793812438845634 28.76158618927002 17.87691593170166 19.252270996570587 37.240913659334183 7.0390715003013611 16.779025807976723 8.3281621038913727 33.374832674860954 8.2568927407264709 3.7443158030509949
leaf_count=224 60 56 45 56 33 45 33 24 32 75 48 25 24 19 27 34 24 38 21 69 45 24 45 54 27 112 56 224 56 25
internal_value=-5.59141e-07 0.0376313 0.0564492 -0.068744 -0.0568615 -0.0393159 0.0796633 -0.0591617 -0.0486199 -0.0702751 -0.0562722 -0.0727158 -0.0164869 -0.0105386 -0.0221998 -0.0296653 -0.0172112 -0.0424426 0.0650758 0.0632576 0.089527 0.0882219 0.0608818 0.0869682 0.00551606 -0.095138 -0.0936103 -0.0919782 -0.0904541 -0.0939115
internal_weight=417.458 269.776 236.286 147.682 97.7103 64.4686 196.775 39.5114 30.5422 27.3621 16.2414 13.4474 37.1066 30.9757 17.943 17.0949 10.7964 10.9113 79.3796 67.8932 117.395 83.8794 51.0461 66.0025 13.0327 33.4898 16.7107 49.9717 16.5969 7.46082
internal_count=1680 784 560 896 560 336 336 224 164 168 93 82 168 135 84 82 48 57 168 147 168 123 114 99 51 224 112 336 112 50
is_linear=0
shrinkage=0.05


Tree=4
num_leaves=31
num_cat=0
split_feature=4 4 7 0 2 3 2 0 0 3 3 7 0 0 3 0 3 9 0 0 0 9 2 9 0 1 0 0 9 9
split_gain=330.355 317.953 13.3751 3.30124 3.0943 2.70062 1.28226 1.55605 2.28935 1.0274 0.96438 0.744211 0.6124 0.384842 0.290546 0.213313 0.219114 0.716246 0.0890525 0.0853975 0.0717586 0.0450076 0.044341 0.0359652 0.0516846 0.0249977 0.109778 0.0805042 0.43459 0.027117
threshold=1.5000000000000002 1.0000000180025095e-35 4.0000000000000009 7.5000000000000009 2.5000000000000004 1.0000000180025095e-35 1.0000000180025095e-35 8.5000000000000018 9.5000000000000018 1.0000000180025095e-35 1.5000000000000002 4.0000000000000009 8.5000000000000018 9.5000000000000018 1.5000000000000002 11.500000000000002 1.0000000180025095e-35 1.0000000180025095e-35 7.5000000000000009 10.500000000000002 5.5000000000000009 1.0000000180025095e-35 1.0000000180025095e-35 1.0000000180025095e-35 8.5000000000000018 1.0000000180025095e-35 10.500000000000002 8.5000000000000018 1.0000000180025095e-35 1.0000000180025095e-35
decision_type=2 2 2 2 2 2 2 2 2 2 2 2 2 2 2 2 2 2 2 2 2 2 2 2 2 2 2 2 2 2
left_child=1 3 9 -1 5 -5 11 -8 -9 -3 -10 -7 14 -14 18 16 17 -4 -11 -15 -18 -17 23 24 -22 26 27 29 -29 -24
right_child=-2 2 15 4 -6 6 7 8 10 12 -12 -13 13 19 -16 21 20 -19 -20 -21 22 -23 25 -25 -26 -27 -28 28 -30 -31
leaf_value=-0.089246720716387895 -0.089397363621502454 0.043489362327980619 0.038358972453432894 -0.090441642517177442 -0.090403218162982982 -0.08934936600229916 -0.065203899699657383 -0.021427688540663486 -0.0685965010935492 0.037730701007486628 -0.040716072809738123 -0.058146202170556785 0.011037873867896108 0.029028602175524845 0.024485581216993901 0.05715334177112176 0.059017858528504941 0.057946150790966267 0.031210985950647859 0.022534892626004693 0.055082644567350673 0.061414440658434946 0.053757796119204261 0.054678305295606314 0.060566558308765533 0.05217628546272262 0.059284929034296656 0.057917374166443381 0.044001805490278489 0.056001309261407985
leaf_weight=17.716370940208435 82.719612494111061 11.163045927882193 8.3187792897224426 5.9125901013612738 9.457572326064108 3.5352992117404929 10.695779860019686 8.3207306414842623 6.5094432979822141 12.635790407657623 5.9245658218860626 4.1588564217090607 6.5414685159921673 7.8579860329628017 9.3735186606645602 11.876135915517807 10.639670774340628 10.632619217038155 8.9454787969589233 14.233609944581984 8.3115720748901385 12.959176003932953 26.174308449029922 17.072484210133553 8.894379645586012 13.010050207376478 10.637811809778212 11.893069818615913 10.621568575501442 27.746090278029442
leaf_count=120 560 31 24 40 64 24 64 40 40 37 32 24 24 25 31 28 24 24 28 48 20 28 64 40 20 32 24 28 28 64
internal_value=-1.35411e-06 0.0222876 0.0481099 -0.0704961 -0.0644024 -0.0589448 -0.0541874 -0.0497114 -0.0417275 0.0295686 -0.055312 -0.0724834 0.0269608 0.0216904 0.0318358 0.0550585 0.0544043 0.0493483 0.0350283 0.0248447 0.0550652 0.0593768 0.0547521 0.0563042 0.0579175 0.0542206 0.054526 0.0538637 0.0513525 0.0549123
internal_weight=414.489 331.77 259.539 72.2312 54.5148 45.0573 39.1447 31.4505 20.7547 70.7509 12.434 7.69416 59.5879 28.6331 30.9548 188.788 163.952 18.9514 21.5813 22.0916 145.001 24.8353 134.361 34.2784 17.206 100.083 87.0728 76.435 22.5146 53.9204
internal_count=1680 1120 672 448 328 264 224 176 112 224 72 48 193 97 96 448 392 48 65 73 344 56 320 80 40 240 208 184 56 128
is_linear=0
shrinkage=0.05


Tree=5
num_leaves=31
num_cat=0
split_feature=8 4 4 4 4 5 3 5 9 5 2 2 2 3 2 2 3 9 2 9 3 2 2 9 2 9 5 5 2 5
split_gain=380.03 227.378 212.185 11.8395 17.479 16.5613 14.0371 10.9246 8.35364 4.3484 3.19993 8.29154 2.41224 2.36407 2.48686 1.70606 0.942586 0.575942 0.509835 0.317931 0.292889 0.189567 0.0749455 0.0332661 0.0259149 0.0237589 0.0119489 0.0115594 0.0101242 0.00998654
threshold=1.0000000180025095e-35 1.5000000000000002 1.0000000180025095e-35 1.5000000000000002 1.0000000180025095e-35 600.00000000000011 1.0000000180025095e-35 600.00000000000011 1.0000000180025095e-35 600.00000000000011 1.5000000000000002 2.5000000000000004 1.0000000180025095e-35 1.5000000000000002 1.5000000000000002 1.5000000000000002 1.5000000000000002 1.0000000180025095e-35 1.0000000180025095e-35 1.0000000180025095e-35 1.5000000000000002 1.5000000000000002 1.0000000180025095e-35 1.0000000180025095e-35 1.5000000000000002 1.0000000180025095e-35 600.00000000000011 600.00000000000011 1.5000000000000002 600.00000000000011
decision_type=2 2 2 2 2 2 2 2 2 2 2 2 2 2 2 2 2 2 2 2 2 2 2 2 2 2 2 2 2 2
left_child=3 2 9 4 26 6 -6 19 16 18 12 -12 -8 14 -7 -11 -9 -16 -2 22 -10 -20 -4 29 -24 -15 -1 -3 -21 -5
right_child=1 27 7 23 5 13 10 8 20 15 11 -13 -14 25 17 -17 -18 -19 21 28 -22 -23 24 -25 -26 -27 -28 -29 -30 -31
leaf_value=-0.085676788180901325 -0.054653964854693982 -0.088468956800575274 0.08891628167227994 -0.084966132821264737 0.038957835195395724 -0.039180795547622486 -0.046541877825649169 0.039249177278673296 0.074309711467719891 -0.088339973204615105 -0.093647166641129834 -0.0070413695627582337 -0.0076447506888173093 -0.08866651283572155 -0.067889346583712595 -0.057188192339050342 0.054315592076608521 -0.093801498230400432 -0.028103507829605908 0.079465504892114736 0.083634457549712674 -0.038746324000559933 0.083757237464905071 -0.086855859736470253 0.085881070710745244 -0.094142328572742351 -0.083758702716773437 -0.086594363021740894 0.081105703685921515 -0.083209847844030793
leaf_weight=16.324239984154701 3.8673359900712994 16.513321101665497 16.236438751220703 16.269492253661156 8.3770768940448743 8.4669653028249758 6.1305014044046446 26.172445014119148 21.123944967985153 8.2336533516645449 6.2674494832754117 4.9434658288955688 11.393953204154968 5.8914584666490573 6.7974235266447049 9.4274176359176618 17.205410689115524 3.1327349990606308 6.8500307947397259 18.535668581724167 14.00373989343643 10.750154748558996 22.742751479148865 16.40943843126297 38.982154279947281 2.9843998998403549 16.15478503704071 16.381532743573189 19.105991721153259 16.10745769739151
leaf_count=112 22 112 22 112 24 45 33 72 36 56 42 21 48 40 42 56 40 21 34 28 20 56 34 112 56 20 112 112 28 112
internal_value=-6.30102e-06 0.0355284 0.0528848 -0.064935 -0.0548181 -0.0397329 -0.0179943 0.0742966 0.0599025 -0.0533344 -0.0345973 -0.0554582 -0.021252 -0.0693142 -0.0590891 -0.0717113 0.0452251 -0.076064 -0.0382161 0.0840716 0.078027 -0.0346041 0.0858936 -0.0850219 0.0850985 -0.0905077 -0.0847227 -0.0875354 0.080298 -0.0840924
internal_weight=411.783 266.132 233.237 145.651 96.8645 64.3854 37.1124 194.109 78.5055 39.1286 28.7354 11.2109 17.5245 27.273 18.3971 17.6611 43.3779 9.93016 21.4675 115.603 35.1277 17.6002 77.9613 48.7864 61.7249 8.87586 32.479 32.8949 37.6417 32.3769
internal_count=1680 784 560 896 560 336 168 336 168 224 144 63 81 168 108 112 112 63 112 168 56 90 112 336 90 60 224 224 56 224
is_linear=0
shrinkage=0.05


Tree=6
num_leaves=31
num_cat=0
split_feature=8 4 4 4 4 5 7 5 0 5 9 7 0 0 0 0 0 7 0 0 0 2 5 0 0 0 9 0 9 0
split_gain=347.162 207.861 193.859 11.219 16.4797 15.1724 10.6039 87.301 5.28991 4.92089 4.24458 13.3706 2.84929 5.24872 2.77544 1.81143 1.608 1.12346 0.88632 0.798919 0.202698 0.222557 0.228748 0.165478 0.155593 0.11438 0.0947862 0.0450803 0.0256774 0.0191274
threshold=1.0000000180025095e-35 1.5000000000000002 1.0000000180025095e-35 1.5000000000000002 1.0000000180025095e-35 600.00000000000011 4.0000000000000009 600.00000000000011 7.5000000000000009 600.00000000000011 1.0000000180025095e-35 4.0000000000000009 9.5000000000000018 7.5000000000000009 9.5000000000000018 10.500000000000002 10.500000000000002 4.0000000000000009 8.5000000000000018 8.5000000000000018 11.500000000000002 1.0000000180025095e-35 600.00000000000011 7.5000000000000009 8.5000000000000018 8.5000000000000018 1.0000000180025095e-35 9.5000000000000018 1.0000000180025095e-35 9.5000000000000018
decision_type=2 2 2 2 2 2 2 2 2 2 2 2 2 2 2 2 2 2 2 2 2 2 2 2 2 2 2 2 2 2
left_child=3 2 8 4 -1 10 7 29 -2 16 11 19 13 -7 -11 -9 17 -10 -13 -6 21 26 23 -23 -12 -24 -8 -25 -5 -4
right_child=1 -3 6 28 5 12 20 15 9 14 24 18 -14 -15 -16 -17 -18 -19 -20 -21 -22 22 25 27 -26 -27 -28 -29 -30 -31
leaf_value=-0.081904301126720855 -0.085302107312850387 -0.084391616051077339 0.082562109739630657 -0.081344090851982312 0.012680449223888328 -0.087300839167660682 0.083924821588640716 -0.10605306502450391 -0.029726063568548192 -0.038609064683276004 -0.0018676493002454308 -0.061913878617505018 -0.086092703264573009 -0.029268147384462269 -0.084784021307647089 -0.058933610835880383 -0.043507342505518909 0.0027944373821544282 -0.093391070135592308 -0.011448922107302001 0.082911042300588628 0.08310498198855415 0.076083493115154652 0.074917092057922977 0.0086558153412997392 0.071004815303905872 0.078307038783859764 0.078472004715885751 -0.083791339707315948 0.084794242330250402
leaf_weight=31.930579468607903 8.719485789537428 32.4259113073349 20.956811890006065 31.811479836702347 6.7429025024175644 6.5975249558687272 15.458166524767876 5.8307019174098951 4.7680257260799426 5.9066476076841372 6.1439050883054724 4.3395900428295135 10.939313337206839 9.5161527395248395 7.2472034096717834 3.1370728462934494 6.244599610567092 5.9946472495794296 4.6142114549875259 6.9830840975046158 19.665225595235825 14.366544604301451 23.08397763967514 17.293297797441483 8.200897663831709 21.330602094531059 14.600462108850479 18.413958862423897 16.165193468332291 17.706261619925499
leaf_count=224 60 224 31 224 25 45 22 39 24 32 25 25 75 48 50 17 34 24 31 31 28 20 38 28 31 38 22 28 112 25
internal_value=-6.96784e-06 0.0341457 0.0508049 -0.062425 -0.0525588 -0.0379357 0.0714378 0.0509834 -0.0510012 -0.0410849 -0.0171384 -0.0306023 -0.0663987 -0.0530288 -0.0640495 -0.0895699 -0.0233235 -0.0116126 -0.0781352 0.000404652 0.0781936 0.0774487 0.0762566 0.0785735 0.0041486 0.0736444 0.0811961 0.0767503 -0.0821687 0.0835843
internal_weight=407.134 263.15 230.724 143.985 96.0082 64.0776 191.843 47.6308 38.8806 30.1611 37.0246 22.6798 27.053 16.1137 13.1539 8.96777 17.0073 10.7627 8.9538 13.726 144.212 124.547 94.4884 50.0738 14.3448 44.4146 30.0586 35.7073 47.9767 38.6631
internal_count=1680 784 560 896 560 336 336 112 224 164 168 112 168 93 82 56 82 48 56 56 224 196 152 76 56 76 44 56 336 56
is_linear=0
shrinkage=0.05


Tree=7
num_leaves=31
num_cat=0
split_feature=8 4 4 4 4 5 3 5 0 0 2 5 0 0 0 3 3 2 0 0 0 0 2 0 0 0 0 5 5 5
split_gain=317.871 190.599 177.672 10.7112 15.6357 13.9979 12.6419 9.69257 9.20658 4.96191 4.82124 5.21247 2.69353 4.89331 2.45 1.81172 1.10928 0.411215 0.3516 0.33523 0.248575 0.18613 0.183093 0.148193 0.0968832 0.063169 0.0213793 0.00858555 0.00766501 0.00729062
threshold=1.0000000180025095e-35 1.5000000000000002 1.0000000180025095e-35 1.5000000000000002 1.0000000180025095e-35 600.00000000000011 1.0000000180025095e-35 600.00000000000011 8.5000000000000018 7.5000000000000009 2.5000000000000004 600.00000000000011 9.5000000000000018 7.5000000000000009 9.5000000000000018 1.5000000000000002 1.5000000000000002 1.5000000000000002 9.5000000000000018 10.500000000000002 7.5000000000000009 7.5000000000000009 2.5000000000000004 7.5000000000000009 9.5000000000000018 10.500000000000002 8.5000000000000018 600.00000000000011 600.00000000000011 600.00000000000011
decision_type=2 2 2 2 2 2 2 2 2 2 2 2 2 2 2 2 2 2 2 2 2 2 2 2 2 2 2 2 2 2
left_child=3 2 9 4 28 6 -6 21 15 27 11 19 13 -7 -13 20 23 -10 -18 -11 -8 -4 24 -9 -23 26 -25 -2 -1 -3
right_child=1 29 7 -5 5 12 8 16 17 10 -12 14 -14 -15 -16 -17 18 -19 -20 -21 -22 22 -24 25 -26 -27 -28 -29 -30 -31
leaf_value=-0.080174887026329744 -0.083985880454624906 -0.082362852719053678 0.081496749058195969 -0.079632752202169865 0.037788207033468774 -0.084188944362960649 -0.0045643697545003645 0.054743078902614206 -0.05206928165690871 -0.0062457257301085202 -0.086087071880927887 -0.034253596258482337 -0.083121702479295442 -0.027881466783356252 -0.082104690985787557 -0.03427681484743865 0.056847522482567914 -0.072153256723276243 0.067616683039159256 -0.022709079808415685 0.0098816110385194778 0.073517330904357678 0.081580928548451295 0.048580993923114602 0.077466807209395791 0.051236782109315177 0.04527296613428726 -0.080821761496159994 -0.07861013631429295 -0.080850297127609952
leaf_weight=15.765897691249847 4.3357527554035169 16.028198510408401 31.965575158596039 47.052516981959343 8.3576095551252347 6.5017067939043072 6.4389149248600059 13.614610895514486 3.7119745910167685 10.155111089348795 4.6499623805284491 5.5846333503723145 10.768077462911604 9.4906182438135129 5.1342552751302719 4.7859666496515265 14.105665326118471 8.1322765648365003 16.38104572892189 4.445669800043107 5.5399753451347351 27.559739664196968 17.056932151317596 8.8445883542299288 35.567103818058968 13.053168073296545 10.907858237624167 4.2408599257469177 15.541337490081787 15.839951932430269
leaf_count=112 30 112 45 336 24 45 27 30 21 44 32 30 75 48 36 24 30 51 30 22 21 45 24 21 54 30 27 30 112 112
internal_value=-6.77107e-06 0.0329128 0.0489481 -0.0601226 -0.0504629 -0.0362478 -0.0163099 0.0688955 -0.0321137 -0.0488873 -0.0392906 -0.0306964 -0.06379 -0.0507734 -0.0571739 -0.00827287 0.0552242 -0.065859 0.062634 -0.0112585 0.00211658 0.0782706 0.0769845 0.0503577 0.0757426 0.0485378 0.0467542 -0.0824213 -0.0793981 -0.081611
internal_weight=401.558 259.471 227.603 142.087 95.0344 63.7271 36.9667 189.056 28.6091 38.5462 29.9696 25.3197 26.7604 15.9923 10.7189 16.7649 76.9069 11.8443 30.4867 14.6008 11.9789 112.149 80.1838 46.4202 63.1268 32.8056 19.7524 8.57661 31.3072 31.8682
internal_count=1680 784 560 896 560 336 168 336 144 224 164 132 168 93 66 72 168 72 60 66 48 168 123 108 99 78 48 60 224 224
is_linear=0
shrinkage=0.05


Tree=8
num_leaves=31
num_cat=0
split_feature=4 4 5 7 0 5 2 0 0 7 0 2 7 0 0 0 2 0 2 9 0 0 0 0 0 0 1 0 0 2
split_gain=234.155 220.943 20.8123 83.3553 2.82668 2.83219 3.129 1.41415 3.97577 0.653084 0.758522 0.68072 0.634323 0.580988 0.713032 0.590559 0.442158 0.485054 0.390932 0.252851 0.23789 0.412235 0.339258 0.204311 0.18772 0.26558 0.170448 0.152504 0.112664 0.0571701
threshold=1.5000000000000002 1.0000000180025095e-35 600.00000000000011 4.0000000000000009 7.5000000000000009 600.00000000000011 2.5000000000000004 9.5000000000000018 8.5000000000000018 4.0000000000000009 9.5000000000000018 1.5000000000000002 4.0000000000000009 7.5000000000000009 8.5000000000000018 10.500000000000002 2.5000000000000004 7.5000000000000009 2.5000000000000004 1.0000000180025095e-35 7.5000000000000009 8.5000000000000018 10.500000000000002 6.5000000000000009 7.5000000000000009 9.5000000000000018 1.0000000180025095e-35 9.5000000000000018 8.5000000000000018 1.5000000000000002
decision_type=2 2 2 2 2 2 2 2 2 2 2 2 2 2 2 2 2 2 2 2 2 2 2 2 2 2 2 2 2 2
left_child=1 4 12 13 -1 6 9 8 -7 10 -6 -11 24 -4 -15 -16 17 19 20 -14 23 -22 27 -5 -3 -26 -24 -23 -19 -30
right_child=-2 2 3 18 5 7 -8 -9 -10 11 -12 -13 16 14 15 -17 -18 28 -20 -21 21 22 26 -25 25 -27 -28 -29 29 -31
leaf_value=-0.078361173628800518 -0.078082027833357298 0.062170361630228689 -0.091849127305363626 0.045536141739946433 -0.032144211354476891 -0.081343670019054237 -0.082017479327816972 -0.077789069866098279 -0.018649527728420337 -0.016882758417118542 -0.058133144708668261 -0.040247769005957487 0.04931273008325323 -0.051615410172034019 -0.092266113648823728 -0.06713739397867656 0.057835477435892658 0.042398649771262148 0.035803545263725943 0.059328284743206783 0.053985325803925378 0.044204612184325941 0.044495415216080872 0.035539092432897261 0.049831097432195132 0.058698349161737856 0.054335385636809522 0.035211860111539754 0.050233814795521969 0.046223006527089702
leaf_weight=16.589105427265167 77.272250860929489 14.668546617031096 4.3413016498088863 10.81240439414978 5.5008414089679754 5.6392848044633883 4.5297197103500357 13.738863453269003 4.5845488607883453 6.1174003928899765 5.7343061715364456 6.3563206791877747 11.873988494277 3.5514425784349433 4.0763519257307035 5.4830268919467926 16.900895014405251 14.141353473067282 12.515660122036932 13.428044676780701 15.553850471973417 9.217031791806221 9.1031242609024048 9.6920084208250046 13.271770209074019 23.214360803365707 8.5198779851198196 9.6509184241294861 13.536647543311117 25.853910475969315
leaf_count=120 560 30 30 28 30 40 32 100 24 30 36 36 28 20 28 34 36 36 36 28 36 24 24 28 32 50 20 28 32 64
internal_value=-8.82074e-06 0.0189508 0.040832 0.0235429 -0.0603818 -0.0546682 -0.0439397 -0.067311 -0.0532305 -0.0366648 -0.0454087 -0.028789 0.0528985 -0.0759953 -0.0707457 -0.0778529 0.0504967 0.0489233 0.0439644 0.0546281 0.0453722 0.0471694 0.0442641 0.0408107 0.0573934 0.0554729 0.0492526 0.0396048 0.046227 0.0476013
internal_weight=395.469 318.197 249.407 102.517 68.7904 52.2013 28.2386 23.9627 10.2238 23.7089 11.2351 12.4737 146.89 17.4521 13.1108 9.55938 95.7348 78.8339 85.0649 25.302 72.5492 52.0448 36.491 20.5044 51.1547 36.4861 17.623 18.868 53.5319 39.3906
internal_count=1680 1120 672 336 448 328 164 164 64 132 66 66 336 112 82 62 224 188 224 56 188 132 96 56 112 82 44 52 132 96
is_linear=0
shrinkage=0.05


Tree=9
num_leaves=31
num_cat=0
split_feature=8 4 4 5 4 4 5 9 0 2 5 9 0 0 0 0 0 0 0 2 0 0 2 0 9 0 0 9 0 9
split_gain=283.173 163.621 150.704 8.79906 8.41935 12.4739 11.7005 7.17246 4.5955 4.3391 4.64496 3.86251 2.53119 4.47424 2.27812 1.47182 0.501879 0.273197 0.217846 0.264722 0.17271 0.16888 0.167386 0.163111 0.132903 0.18721 0.0979643 0.0212219 0.018846 0.013931
threshold=1.0000000180025095e-35 1.5000000000000002 1.0000000180025095e-35 600.00000000000011 1.5000000000000002 1.0000000180025095e-35 600.00000000000011 1.0000000180025095e-35 7.5000000000000009 2.5000000000000004 600.00000000000011 1.0000000180025095e-35 9.5000000000000018 7.5000000000000009 9.5000000000000018 8.5000000000000018 7.5000000000000009 10.500000000000002 10.500000000000002 1.0000000180025095e-35 7.5000000000000009 8.5000000000000018 2.5000000000000004 7.5000000000000009 1.0000000180025095e-35 9.5000000000000018 10.500000000000002 1.0000000180025095e-35 8.5000000000000018 1.0000000180025095e-35
decision_type=2 2 2 2 2 2 2 2 2 2 2 2 2 2 2 2 2 2 2 2 2 2 2 2 2 2 2 2 2 2
left_child=4 2 8 20 5 -1 11 18 -2 10 17 15 13 -8 -12 16 -7 -10 19 -5 -4 -13 24 -21 25 -22 -17 -14 -9 -6
right_child=1 -3 3 7 29 6 12 28 9 -11 14 21 27 -15 -16 26 -18 -19 -20 23 22 -23 -24 -25 -26 -27 -28 -29 -30 -31
leaf_value=-0.075514797677643075 -0.077612001138702605 -0.07694896381040138 0.077426774692589476 0.043558810667851361 -0.074684103886479863 -0.027345280431133309 -0.081544501593858787 0.068037137632801489 -0.004429184173624005 -0.080588280990152139 -0.030577896798184775 -0.0041273406607790714 -0.079148264946812708 -0.027330835047374616 -0.07737055423962097 -0.038599344154699004 -0.0058606691851532874 -0.019344538732131975 0.043549213181866137 0.038711992194059762 0.069495324395944622 0.0068487376876587951 0.077480762706524917 0.029469800350513848 0.068404416060879894 0.076281688732857678 -0.047849835136023519 -0.083874157900989149 0.070436629628707156 -0.076544471774396716
leaf_weight=30.015465810894966 8.2365400940179807 30.557387605309486 30.833896636962891 8.0244351476430911 29.715806990861893 6.2854247242212313 6.3696793913841274 14.544967517256735 10.128191813826563 4.4950973689556113 5.5086894184350967 6.1414469629526129 6.947793096303938 9.4548517465591413 4.9280956983566284 5.3126309067010862 4.7895037978887558 4.4054704755544671 13.567091360688208 7.5290115624666241 17.666303068399429 8.1618615537881833 16.452119767665863 13.045827418565748 19.592763289809227 23.924829721450806 6.2046889811754227 3.6096937507390976 18.709132790565491 15.215519458055494
leaf_count=224 60 224 45 20 224 30 45 25 44 32 30 25 50 48 36 28 20 22 34 20 30 31 24 38 33 36 34 25 31 112
internal_value=-1.61942e-05 0.0315134 0.0464702 0.0651408 -0.0575327 -0.0489688 -0.0363769 0.0520243 -0.0445949 -0.0353656 -0.0272248 -0.018196 -0.061803 -0.0491529 -0.0526727 -0.0310683 -0.018054 -0.00895035 0.0383313 0.035856 0.0742609 0.00213591 0.0730036 0.0328518 0.0717997 0.0733991 -0.0435828 -0.0807641 0.0693871 -0.0753141
internal_weight=390.374 252.15 221.592 183.89 138.224 93.293 63.2776 75.4205 37.7021 29.4655 24.9704 36.8956 26.382 15.8245 10.4368 22.5922 11.0749 14.5337 42.1664 28.5993 108.47 14.3033 77.636 20.5748 61.1839 41.5911 11.5173 10.5575 33.2541 44.9313
internal_count=1680 784 560 336 896 560 336 168 224 164 132 168 168 93 66 112 50 66 112 78 168 56 123 58 99 66 62 75 56 336
is_linear=0
shrinkage=0.05


Tree=10
num_leaves=31
num_cat=0
split_feature=4 4 5 7 3 0 5 3 3 0 0 0 1 0 3 0 0 3 0 0 0 7 9 7 0 9 3 9 0 0
split_gain=199.824 185.48 17.742 74.1964 3.07068 2.64755 2.60011 2.83821 1.65979 1.34393 3.77328 1.11326 0.696446 3.25031 1.50451 0.542252 0.6767 1.06446 0.538071 0.378921 0.314296 0.247097 0.265115 0.225281 0.232685 0.422351 0.419347 0.184713 0.0777504 0.0581801
threshold=1.5000000000000002 1.0000000180025095e-35 600.00000000000011 4.0000000000000009 1.0000000180025095e-35 7.5000000000000009 600.00000000000011 1.0000000180025095e-35 1.0000000180025095e-35 9.5000000000000018 8.5000000000000018 7.5000000000000009 1.0000000180025095e-35 10.500000000000002 1.5000000000000002 7.5000000000000009 8.5000000000000018 1.5000000000000002 9.5000000000000018 8.5000000000000018 11.500000000000002 4.0000000000000009 1.0000000180025095e-35 4.0000000000000009 9.5000000000000018 1.0000000180025095e-35 1.5000000000000002 1.0000000180025095e-35 7.5000000000000009 8.5000000000000018
decision_type=2 2 2 2 2 2 2 2 2 2 2 2 2 2 2 2 2 2 2 2 2 2 2 2 2 2 2 2 2 2
left_child=1 5 8 15 -5 -1 7 -7 -3 10 -8 21 13 14 19 -4 -17 -18 27 -9 23 -10 -23 29 26 -26 -25 28 -6 -13
right_child=-2 2 3 4 18 6 9 12 11 -11 -12 20 -14 -15 -16 16 17 -19 -20 -21 -22 22 -24 24 25 -27 -28 -29 -30 -31
leaf_value=-0.074298224258726717 -0.074076806164066339 0.06118670530962142 -0.088564916090966769 0.013607211178575843 0.040982172525235928 -0.080188071248079446 -0.077500707340765987 -0.02771571196784603 0.059217872663946063 -0.073814887278152594 -0.015648266799482329 0.049283899624839374 -0.016398135614136614 -0.079268957802712814 -0.052150683228972705 -0.049273291197227467 -0.089413756426438326 -0.055327308686476354 0.049784697733852058 -0.0090343011001282024 0.050569517911049744 0.045260600614747071 0.0556762985886066 0.038391460606402444 0.042759965792387521 0.027832592090385716 0.051888194867370598 0.037823361957253616 0.046849144659573877 0.044132461520605543
leaf_weight=15.806153684854506 73.600562781095505 23.726989075541496 4.2369403243064907 9.006898418068884 10.188926517963411 3.8796885013580349 5.4325643032789248 5.1492105424404198 13.451657608151434 13.072763368487356 4.5149980485439301 8.5024460107088107 4.5178259164094916 3.8557358235120764 4.5321545451879492 3.5252978801727286 5.4046820700168592 3.9748058915138245 29.360477343201637 5.7403609454631805 12.869012564420698 11.517999202013016 13.010387867689133 16.57522277534008 10.111838325858116 8.9174087643623352 8.8162732571363467 22.105050593614578 12.667743742465971 15.42344409227371
leaf_count=120 560 47 30 32 28 28 40 28 28 100 24 20 24 28 28 20 38 24 72 28 30 28 28 44 26 26 20 60 32 39
internal_value=-1.74364e-05 0.0175718 0.0377914 0.0216906 0.0411787 -0.0564314 -0.0508608 -0.0405333 0.0491098 -0.0632764 -0.0494271 0.0467058 -0.0340678 -0.0382088 -0.027943 -0.0730449 -0.0679493 -0.0749687 0.04452 -0.0178679 0.0434014 0.0537719 0.0507853 0.0420517 0.0399449 0.0357648 0.0430777 0.0410822 0.0442338 0.0459631
internal_weight=383.496 309.895 243.394 100.471 83.3291 66.5015 50.6953 27.675 142.923 23.0203 9.94756 119.196 23.7953 19.2775 15.4217 17.1417 12.9048 9.37949 74.3222 10.8896 81.2156 37.98 24.5284 68.3466 44.4207 19.0292 25.3915 44.9617 22.8567 23.9259
internal_count=1680 1120 672 336 224 448 328 164 336 164 64 289 136 112 84 112 82 62 192 56 205 84 56 175 116 52 64 120 60 59
is_linear=0
shrinkage=0.05


Tree=11
num_leaves=31
num_cat=0
split_feature=8 9 5 5 3 0 9 2 3 9 0 9 0 3 0 0 3 2 0 0 0 2 0 0 3 0 0 3 0 0
split_gain=253.939 49.0267 26.2338 5.65958 9.20731 4.81156 2.61988 2.12197 1.89009 1.85904 1.41703 2.03109 1.06302 1.05957 1.02342 2.03364 2.38076 3.64539 0.692555 0.633103 0.598556 1.01886 0.412628 0.32992 0.171466 0.170359 0.167192 0.235102 0.1698 0.140595
threshold=1.0000000180025095e-35 1.0000000180025095e-35 600.00000000000011 600.00000000000011 1.0000000180025095e-35 8.5000000000000018 1.0000000180025095e-35 2.5000000000000004 1.0000000180025095e-35 1.0000000180025095e-35 7.5000000000000009 1.0000000180025095e-35 8.5000000000000018 1.5000000000000002 9.5000000000000018 7.5000000000000009 1.5000000000000002 1.5000000000000002 6.5000000000000009 8.5000000000000018 11.500000000000002 1.5000000000000002 10.500000000000002 5.5000000000000009 1.5000000000000002 9.5000000000000018 8.5000000000000018 1.0000000180025095e-35 7.5000000000000009 10.500000000000002
decision_type=2 2 2 2 2 2 2 2 2 2 2 2 2 2 2 2 2 2 2 2 2 2 2 2 2 2 2 2 2 2
left_child=3 2 26 4 6 7 22 10 -4 -7 11 18 23 -12 15 -5 17 -17 -6 -19 21 -14 -1 -10 -25 -23 28 -28 -2 -29
right_child=1 -3 8 14 5 9 -8 -9 12 -11 13 -13 20 -15 -16 16 -18 19 -20 -21 -22 25 -24 24 -26 -27 27 29 -30 -31
leaf_value=-0.011379783153893361 0.032717097657647687 0.067267132831273516 -0.02837679459501747 -0.074453007093347401 -0.059830718545003707 -0.078149497220133465 0.022306062633851445 -0.0037937538858232888 0.0028623829838105392 -0.04932747066156927 -0.049675308526683185 -0.011409142111842685 -0.0077971474962998839 -0.083541480316888447 -0.074089610958750968 -0.010390826167896841 -0.07870315007339107 -0.078806217192464834 -0.036082665816050449 -0.050246476209078031 -0.011298006473302862 0.019497287095380386 -0.033330557991795719 -0.015359142873548405 -0.0068407369544112463 0.009238366061003438 0.028173537504856811 0.038475992956122723 0.026504001307130126 0.033036227951602333
leaf_weight=3.6230736672878248 27.915774166584015 65.717652529478073 8.7281794995069486 15.620929121971129 6.2391729503870028 19.375859558582309 4.5568979084491721 3.3799247592687598 4.0911351591348675 7.8660474121570578 7.8164127171039599 5.4239745736122122 9.0237052440643328 3.2782826870679855 25.924092069268227 6.1078492403030404 5.3483818173408499 3.2059576064348221 6.0439237803220749 4.9159020632505417 6.2477164566516867 6.2270176261663446 5.2333775758743286 17.057357668876648 9.0373445749282855 11.557416081428528 12.5103572756052 24.851821288466454 18.143999978899956 22.75347875058651
leaf_count=18 90 112 48 120 42 144 16 16 18 48 48 26 42 24 200 32 40 24 36 32 30 24 30 84 42 48 41 73 60 72
internal_value=-2.54235e-05 0.0303558 0.0167393 -0.0553319 -0.0459173 -0.0543633 -0.00850009 -0.041273 -0.00656581 -0.0698272 -0.0456713 -0.0368925 -0.0035556 -0.0596822 -0.0665507 -0.0609983 -0.0502631 -0.0395737 -0.0481454 -0.0615199 0.00263904 0.00588711 -0.0243507 -0.0103392 -0.012409 0.0128304 0.0325363 0.0342731 0.0302696 0.035876
internal_weight=377.823 243.863 178.145 133.96 72.8369 59.4236 13.4133 32.1817 71.9699 27.2419 28.8018 17.7071 63.2417 11.0947 61.1231 35.199 19.5781 14.2297 12.2831 8.12186 33.0559 26.8081 8.85645 30.1858 26.0947 17.7844 106.175 60.1157 46.0598 47.6053
internal_count=1680 784 672 896 448 384 64 192 336 192 176 104 288 72 448 248 128 88 78 56 144 114 48 144 126 72 336 186 150 145
is_linear=0
shrinkage=0.05


Tree=12
num_leaves=31
num_cat=0
split_feature=8 4 4 4 4 3 0 2 3 0 0 0 1 0 3 3 0 9 0 9 3 0 0 3 0 3 0 0 2 0
split_gain=232.649 139.71 127.799 7.10711 10.386 9.11658 4.22802 3.97514 3.32295 5.86547 2.90586 2.36785 1.45732 0.924266 5.08295 4.32878 1.29787 0.858008 0.854967 0.563874 0.248751 0.27685 0.46543 0.304311 0.195738 0.123502 0.0957058 0.195218 0.0494389 0.0550835
threshold=1.0000000180025095e-35 1.5000000000000002 1.0000000180025095e-35 1.5000000000000002 1.0000000180025095e-35 1.5000000000000002 7.5000000000000009 2.5000000000000004 1.0000000180025095e-35 8.5000000000000018 7.5000000000000009 7.5000000000000009 1.0000000180025095e-35 10.500000000000002 1.5000000000000002 1.5000000000000002 8.5000000000000018 1.0000000180025095e-35 10.500000000000002 1.0000000180025095e-35 1.5000000000000002 7.5000000000000009 9.5000000000000018 1.0000000180025095e-35 9.5000000000000018 1.5000000000000002 10.500000000000002 7.5000000000000009 1.0000000180025095e-35 10.500000000000002
decision_type=2 2 2 2 2 2 2 2 2 2 2 2 2 2 2 2 2 2 2 2 2 2 2 2 2 2 2 2 2 2
left_child=3 2 6 4 -1 8 -2 13 18 10 19 -7 -13 15 -15 16 -8 20 -6 -10 21 -4 -23 -24 -11 26 27 -19 -22 -30
right_child=1 -3 17 -5 5 11 7 -9 9 24 -12 12 -14 14 -16 -17 -18 25 -20 -21 28 22 23 -25 -26 -27 -28 -29 29 -31
leaf_value=-0.070970802656659157 -0.07404583725409622 -0.073491317158958583 0.061234447171428168 -0.070597092559605862 0.017264156734958534 -0.035459702351200974 -0.023217578401686038 -0.076924954773341006 -0.042238985345781438 -0.049862301300800681 0.0046191716790581943 -0.085288442484389146 -0.049282719752497199 -0.079349121194078373 0.0045120366618367266 -0.057092663493660822 0.010368928236688448 0.067195664869261915 -0.010326381809002826 -0.017894103973006822 0.063459397057796282 0.04834800246514348 0.05231543225274661 0.062555739955106257 -0.063530379462696282 0.068371617549213975 0.06761629187833286 0.058771015117006213 0.05703198783596939 0.061868288764848893
leaf_weight=27.876752756536007 7.869910202920436 29.178757384419441 21.276244536042213 41.559909723699093 4.8926529437303525 5.4469738677144077 4.6485372632742017 4.3237811028957358 6.2855478599667585 4.0708203464746457 10.396047949790955 9.4192177504301053 4.0053193122148505 3.8438539355993262 3.4097351282835007 5.153585046529769 7.5448476299643517 11.737113669514658 6.5893447995185852 3.8265129774808884 16.688236147165298 19.269894257187843 12.387072846293451 17.510586097836494 7.3465923443436623 23.967993140220642 11.816978707909582 16.603837519884109 9.8205216377973574 14.701077148318289
leaf_count=224 60 224 41 336 18 30 24 32 36 24 42 66 24 28 16 32 32 20 30 18 31 44 27 33 48 40 20 32 20 28
internal_value=-2.68438e-05 0.0291023 0.0431847 -0.0534907 -0.0456051 -0.0342511 -0.0415524 -0.0327114 -0.0216376 -0.029934 -0.0139431 -0.0632642 -0.0745458 -0.0249405 -0.039928 -0.0186734 -0.0024354 0.0609219 0.00143036 -0.0330266 0.0582745 0.0564695 0.0544075 0.058313 -0.0586571 0.0655313 0.0638362 0.06226 0.0613601 0.0599314
internal_weight=373.468 241.753 212.574 131.716 90.1558 62.279 36.7943 28.9243 43.4075 31.9255 20.5081 18.8715 13.4245 24.6006 7.25359 17.347 12.1934 175.78 11.482 10.1121 111.654 70.4438 49.1676 29.8977 11.4174 64.1259 40.1579 28.341 41.2098 24.5216
internal_count=1680 784 560 896 560 336 224 164 216 168 96 120 90 132 44 88 56 336 48 54 224 145 104 60 72 112 72 52 79 48
is_linear=0
shrinkage=0.05


Tree=13
num_leaves=31
num_cat=0
split_feature=8 4 4 5 4 4 5 3 0 9 0 2 5 9 0 0 2 3 3 3 0 0 9 0 0 0 0 0 9 9
split_gain=214.321 129.107 117.867 8.27562 7.07385 10.1842 9.60464 9.89474 7.26406 5.77402 4.05891 3.75927 3.88816 3.25642 2.34853 4.13319 2.14241 1.44646 0.741191 0.320094 0.199165 0.187434 0.179918 0.153998 0.0954074 0.217047 0.0702368 0.0465527 0.0220184 0.00993831
threshold=1.0000000180025095e-35 1.5000000000000002 1.0000000180025095e-35 600.00000000000011 1.5000000000000002 1.0000000180025095e-35 600.00000000000011 1.0000000180025095e-35 8.5000000000000018 1.0000000180025095e-35 7.5000000000000009 2.5000000000000004 600.00000000000011 1.0000000180025095e-35 9.5000000000000018 7.5000000000000009 1.5000000000000002 1.5000000000000002 1.5000000000000002 1.5000000000000002 10.500000000000002 7.5000000000000009 1.0000000180025095e-35 7.5000000000000009 7.5000000000000009 9.5000000000000018 8.5000000000000018 9.5000000000000018 1.0000000180025095e-35 1.0000000180025095e-35
decision_type=2 2 2 2 2 2 2 2 2 2 2 2 2 2 2 2 2 2 2 2 2 2 2 2 2 2 2 2 2 2
left_child=4 2 10 22 5 -1 7 -7 17 18 -2 12 20 -10 15 -8 -14 21 23 -11 -12 -9 24 -5 -4 -26 -24 -25 -16 -6
right_child=1 -3 3 9 29 6 14 8 13 19 11 -13 16 -15 28 -17 -18 -19 -20 -21 -22 -23 26 27 25 -27 -28 -29 -30 -31
leaf_value=-0.069538306899135136 -0.072334321279318312 -0.071829247202022439 0.072782016465224572 0.034548183791130394 -0.068630129362360473 0.031802228609383386 -0.07645836255320794 -0.0058558760572287368 -0.082765444109802813 0.05842798309851787 -0.0034055469799114156 -0.074952133979814373 -0.076072960071815118 -0.028933366090052915 -0.073691152565198828 -0.023305134273237962 -0.028864695535783774 -0.032609961595919452 0.042222182737948977 0.068879504962867877 -0.016200701761182292 0.0066917785403434009 0.06778413903572654 0.028860541958097202 0.06425433336330881 0.071149016697986289 0.063071933042927783 0.023670964732698013 -0.078629049834997869 -0.070285357642332999
leaf_weight=27.049440450966358 7.6586678996682158 28.381438314914703 19.351063668727875 7.3498564362525967 26.53665404766798 8.248963534831999 6.0271681845188168 6.4346685409545952 6.8769993335008603 18.617376983165741 10.102662831544878 4.218376211822032 4.0137512609362602 4.7495005279779434 6.4623248502612096 9.3017487078905088 5.9897370040416718 4.7709069252014151 16.143274173140526 12.078850582242014 4.3512098789215097 5.5374224632978439 14.74786587059498 7.6514541953802135 17.948550596833229 31.356332749128342 17.050048835575581 9.9290745407342893 3.4696955382823944 13.776436038315294
leaf_count=224 60 224 30 20 224 24 45 27 48 36 44 32 30 24 50 48 36 24 40 20 22 21 25 22 32 50 31 30 25 112
internal_value=-2.90311e-05 0.0282221 0.0418375 0.0591025 -0.051822 -0.0439461 -0.032759 -0.0163979 -0.030413 0.0461356 -0.0399976 -0.0313611 -0.0238426 -0.0607747 -0.0564762 -0.0442044 -0.0478063 -0.00932954 0.0338753 0.0625406 -0.00725741 -5.22395e-05 0.0683668 0.0284705 0.0698068 0.0686391 0.0652575 0.0259296 -0.0754162 -0.0691958
internal_weight=366.182 236.94 208.558 172.224 129.242 88.9288 61.8794 36.6185 28.3695 71.7699 36.3344 28.6757 24.4574 11.6265 25.2609 15.3289 10.0035 16.743 41.0737 30.6962 14.4539 11.9721 100.454 24.9304 68.6559 49.3049 31.7979 17.5805 9.93202 40.3131
internal_count=1680 784 560 336 896 560 336 168 144 168 224 164 132 72 168 93 66 72 112 56 66 48 168 72 112 82 56 52 75 336
is_linear=0
shrinkage=0.05


Tree=14
num_leaves=31
num_cat=0
split_feature=8 9 5 5 3 0 9 9 2 0 0 9 3 0 0 3 2 0 3 0 0 2 0 0 0 3 0 3 0 2
split_gain=197.884 40.4378 21.818 5.45444 7.54067 4.21303 2.22477 1.88161 1.85569 2.11438 2.76902 2.05595 1.6245 1.00998 2.00557 2.21949 3.35048 0.902166 0.889216 0.682767 0.556547 0.899929 0.34447 0.286521 0.175264 0.139289 0.132339 0.207693 0.156595 0.131752
threshold=1.0000000180025095e-35 1.0000000180025095e-35 600.00000000000011 600.00000000000011 1.0000000180025095e-35 8.5000000000000018 1.0000000180025095e-35 1.0000000180025095e-35 2.5000000000000004 5.5000000000000009 7.5000000000000009 1.0000000180025095e-35 1.0000000180025095e-35 9.5000000000000018 7.5000000000000009 1.5000000000000002 1.5000000000000002 8.5000000000000018 1.5000000000000002 8.5000000000000018 11.500000000000002 1.5000000000000002 10.500000000000002 5.5000000000000009 9.5000000000000018 1.5000000000000002 8.5000000000000018 1.0000000180025095e-35 7.5000000000000009 1.5000000000000002
decision_type=2 2 2 2 2 2 2 2 2 2 2 2 2 2 2 2 2 2 2 2 2 2 2 2 2 2 2 2 2 2
left_child=3 2 26 4 6 8 22 -7 9 -6 11 -11 -4 14 -5 16 -16 23 -12 -18 21 -19 -1 -14 -23 -25 28 -28 -2 -29
right_child=1 -3 12 13 5 7 -8 -9 -10 10 18 -13 17 -15 15 -17 19 20 -20 -21 -22 24 -24 25 -26 -27 27 29 -30 -31
leaf_value=-0.0095958179904517583 0.030134982691360248 0.062426332575592318 -0.027146163132906843 -0.070150059028453365 -0.079694547212282044 -0.072679049037991592 0.021885908525650422 -0.042983739551630845 -0.0010503927171735606 -0.03441726277197283 -0.045776137882488854 0.0065702912031752854 0.002426645948513338 -0.069653920299341907 -0.0066743264340860878 -0.073841563704927615 -0.075228970188965572 -0.0078947059305333831 -0.077635110179978456 -0.044705477936007355 -0.011643922021732539 0.018604415370205945 -0.029961779261275356 -0.014763347473214056 0.0080868655286206823 -0.0069500064190017759 0.025479745798567429 0.036955133845742789 0.024032724055731803 0.031110480164878725
leaf_weight=3.5229229182004911 26.396638415753841 60.835300788283348 8.4339364543557149 14.421479575335978 3.086107447743422 17.985714972019199 4.476079359650611 7.5838230103254309 3.3062435984611502 9.471472002565859 7.534160852432251 4.5193153023719796 3.9448155239224461 23.846691876649857 5.9432796984910983 4.9904768317937842 3.0118053182959557 8.7150957584381121 3.0878439620137215 4.6772359013557434 6.0296016335487357 6.1225954890251169 5.0561017543077469 16.510195560753345 11.219286940991879 8.7149367183446902 11.932446159422396 13.86501684784889 17.471915066242218 31.659255608916283
leaf_count=18 90 112 48 120 24 144 16 48 16 60 48 20 18 200 32 40 24 42 24 32 30 24 30 84 48 42 41 42 60 103
internal_value=-3.06142e-05 0.0274158 0.0149615 -0.0503265 -0.0409425 -0.0488466 -0.0066895 -0.0638715 -0.0364558 -0.0406819 -0.0357903 -0.0211774 -0.00657287 -0.0618117 -0.0561523 -0.0453125 -0.0348686 -0.00374029 -0.0550376 -0.0566616 0.00204524 0.00521292 -0.0215986 -0.0101043 0.0118001 -0.0120639 0.0297726 0.0313515 0.0277046 0.0328905
internal_weight=358.372 231.851 171.016 126.521 69.6298 56.5747 13.0551 25.5695 31.0051 27.6989 24.6128 13.9908 69.6905 56.891 33.0443 18.6228 13.6323 61.2565 10.622 7.68904 32.0866 26.057 8.57902 29.1699 17.3419 25.2251 101.325 57.4567 43.8686 45.5243
internal_count=1680 784 672 896 448 384 64 192 192 176 152 80 336 448 248 128 88 288 72 56 144 114 48 144 72 126 336 186 150 145
is_linear=0
shrinkage=0.05


Tree=15
num_leaves=31
num_cat=0
split_feature=8 4 4 7 5 4 4 5 3 5 3 3 9 3 3 7 9 3 7 9 9 7 3 5 3 3 5 5 9 5
split_gain=181.682 118.205 108.47 10.4702 67.0134 7.29764 10.1678 8.71883 8.42173 2.50105 2.04592 1.93598 1.49848 1.35628 1.1214 1.00169 2.67229 0.975811 0.603511 0.524573 0.393644 0.141427 0.130434 0.22925 0.12811 0.113111 0.0477697 0.0246985 0.0190033 0.0174918
threshold=1.0000000180025095e-35 1.5000000000000002 1.0000000180025095e-35 4.0000000000000009 600.00000000000011 1.5000000000000002 1.0000000180025095e-35 600.00000000000011 1.0000000180025095e-35 600.00000000000011 1.5000000000000002 1.5000000000000002 1.0000000180025095e-35 1.0000000180025095e-35 1.5000000000000002 4.0000000000000009 1.0000000180025095e-35 1.5000000000000002 4.0000000000000009 1.0000000180025095e-35 1.0000000180025095e-35 4.0000000000000009 1.5000000000000002 600.00000000000011 1.5000000000000002 1.5000000000000002 600.00000000000011 600.00000000000011 1.0000000180025095e-35 600.00000000000011
decision_type=2 2 2 2 2 2 2 2 2 2 2 2 2 2 2 2 2 2 2 2 2 2 2 2 2 2 2 2 2 2
left_child=5 2 9 4 -4 6 -1 8 -8 18 13 15 -13 -9 -6 -10 -17 -11 -2 21 24 -15 23 -22 26 -20 -5 -26 -12 -3
right_child=1 29 3 20 14 -7 7 10 11 17 28 12 -14 19 -16 16 -18 -19 25 -21 22 -23 -24 -25 27 -27 -28 -29 -30 -31
leaf_value=-0.067220159947411817 -0.03692878007776302 -0.07180844790671341 0.067859409159679349 0.066595272472209019 -0.10044999142858485 -0.067019995930236401 0.030513458943617511 -0.072851925123798608 -0.001287964697091936 -0.045623214807740474 -0.072186576292048152 -0.05960772274034222 -0.020875522875134344 -0.036135883972007454 -0.064372023597523309 -0.055149465906138895 -0.0054798822170013129 -0.072417656524435825 -0.023641980389626453 -0.050013057695391161 0.06296984381346396 -0.02356660721622994 0.064069218606760694 0.055105836074925765 0.067904131270166937 -0.013097229111814955 0.063152351084622749 0.071095225652548139 -0.077384746963460302 -0.069293799566059869
leaf_weight=25.478802442550659 9.6124926507472992 14.208335071802139 33.267905756831169 20.939691513776779 5.3974325358867628 38.024589918553829 8.2087208330631238 3.0724557116627738 6.4541515260934839 10.301379039883612 4.9886478781700125 6.2612497210502642 4.1538320928812027 4.0188989639282209 3.5840776115655899 4.6195009499788284 6.5441683232784271 5.0704471766948691 6.8902887850999832 4.5032044649124154 19.398029908537865 5.0501907616853714 22.024034045636654 17.745408266782761 11.857813864946365 4.0309531092643738 19.417090445756912 12.409189984202385 2.715116560459137 13.473020203411579
leaf_count=224 56 112 56 36 36 336 24 24 28 72 40 40 20 28 20 28 28 40 36 28 36 28 40 36 20 20 36 20 20 112
internal_value=-3.24986e-05 0.02631 0.0395917 0.0566321 0.0351402 -0.0487778 -0.0407185 -0.0295743 -0.0140279 -0.0392096 -0.0527144 -0.0270707 -0.0441602 -0.0428541 -0.0860531 -0.0169679 -0.026033 -0.0544614 -0.0277919 -0.0360633 0.0639672 -0.0291366 0.0610205 0.0592128 0.0666651 -0.01975 0.0649388 0.0695359 -0.0740186 -0.0705845
internal_weight=353.721 229.628 201.946 166.041 42.2494 124.094 86.0689 60.5901 36.2416 35.9056 24.3485 28.0329 10.4151 16.6447 8.98151 17.6178 11.1637 15.3718 20.5337 13.5723 123.791 9.06909 59.1675 37.1434 64.6238 10.9212 40.3568 24.267 7.70376 27.6814
internal_count=1680 784 560 336 112 896 560 336 168 224 168 144 60 108 56 84 56 112 112 84 224 56 112 72 112 56 72 40 60 224
is_linear=0
shrinkage=0.05


Tree=16
num_leaves=31
num_cat=0
split_feature=8 4 4 7 5 4 4 5 0 2 5 7 0 0 0 0 2 2 7 0 0 2 0 2 5 7 0 0 0 5
split_gain=167.989 109.662 100.544 9.84597 61.678 7.22834 9.93792 8.13763 3.91932 3.56747 3.19686 2.62381 2.31985 3.97214 2.21209 1.47537 1.42467 1.68947 0.628536 0.559797 0.237334 0.250659 0.255261 0.0973369 0.123301 0.0328476 0.0291345 0.0270271 0.0214899 0.0141123
threshold=1.0000000180025095e-35 1.5000000000000002 1.0000000180025095e-35 4.0000000000000009 600.00000000000011 1.5000000000000002 1.0000000180025095e-35 600.00000000000011 7.5000000000000009 2.5000000000000004 600.00000000000011 4.0000000000000009 9.5000000000000018 7.5000000000000009 9.5000000000000018 10.500000000000002 2.5000000000000004 1.5000000000000002 4.0000000000000009 8.5000000000000018 11.500000000000002 1.0000000180025095e-35 7.5000000000000009 1.5000000000000002 600.00000000000011 4.0000000000000009 7.5000000000000009 7.5000000000000009 9.5000000000000018 600.00000000000011
decision_type=2 2 2 2 2 2 2 2 2 2 2 2 2 2 2 2 2 2 2 2 2 2 2 2 2 2 2 2 2 2
left_child=5 2 8 4 28 6 -1 11 -2 10 18 19 13 -9 -12 -6 17 27 -10 -8 21 26 -23 -24 -25 -14 -5 -13 -4 -3
right_child=1 29 3 20 15 -7 7 12 9 -11 14 16 25 -15 -16 -17 -18 -19 -20 -21 -22 22 23 24 -26 -27 -28 -29 -30 -31
leaf_value=-0.066104480504942664 -0.070247812054712019 -0.070297525281455261 0.0651692650070929 0.064016623953912111 -0.09663597737995526 -0.06592008958338734 0.014348148959884236 -0.071766456945763987 -0.018437686142452538 -0.072632580968820235 -0.022249122243007353 -0.016063867592976035 -0.066147108989817557 -0.018308339999370225 -0.070284725133252457 -0.054142187512856592 0.0018439043271500349 -0.050266128952185019 0.0025112394713234943 -0.0060841962658283897 0.068053641213255869 0.064744981035752255 0.055335403988089664 0.062502345617301794 0.056911477338597576 -0.072666108187559808 0.067459846709658863 -0.020864606617192874 0.06775681965532486 -0.06800409621119928
leaf_weight=24.634778708219528 7.338337115943431 13.798423647880554 17.598448902368546 10.98357740789652 5.8376230895519239 36.758201085031033 6.7096063643693906 5.6174146980047253 6.5724570453166997 4.0511224418878546 5.2480359673500061 5.6432322561740929 2.7622409686446172 9.110462009906767 4.4113034680485725 3.1420516222715378 4.3816600441932669 6.5403241813182822 7.8654354959726334 6.6993427723646164 16.318507015705109 22.19186194986105 17.617620438337326 20.437527798116207 19.057161092758179 6.4315124005079269 13.941545546054838 6.1015582829713821 14.748874172568319 13.052766002714634
leaf_count=224 60 112 31 20 39 336 25 45 33 32 30 26 25 48 36 17 18 38 33 31 28 40 36 38 38 50 24 30 25 112
internal_value=-3.05003e-05 0.0256193 0.0385171 0.0552266 0.0341659 -0.0474066 -0.0393657 -0.0283868 -0.0377039 -0.0292196 -0.0219212 -0.013392 -0.0510001 -0.038698 -0.0441864 -0.0817671 -0.0237632 -0.0298995 -0.00702519 0.0041398 0.0624467 0.0615689 0.0601942 0.058426 0.0598046 -0.0707075 0.0659425 -0.0185579 0.0663491 -0.0691827
internal_weight=345.603 224.213 197.361 161.875 41.327 121.39 84.6321 59.9974 35.4867 28.1484 24.0972 36.0757 23.9216 14.7279 9.65934 8.97967 22.6668 18.2851 14.4379 13.4089 120.548 104.229 79.3042 57.1123 39.4947 9.19375 24.9251 11.7448 32.3473 26.8512
internal_count=1680 784 560 336 112 896 560 336 224 164 132 168 168 93 66 56 112 94 66 56 224 196 152 112 76 75 44 56 56 224
is_linear=0
shrinkage=0.05


Tree=17
num_leaves=31
num_cat=0
split_feature=8 4 4 7 5 4 4 5 0 2 5 7 0 0 0 0 2 2 7 0 0 2 0 2 5 0 7 0 0 5
split_gain=155.392 101.888 93.3378 9.25513 56.8993 7.18893 9.74454 7.6602 3.77534 3.38986 2.97628 2.37479 2.26551 3.80168 2.13424 1.36549 1.29158 1.54039 0.569358 0.505057 0.235917 0.25189 0.25249 0.0958875 0.133689 0.028618 0.0266065 0.0246073 0.0219656 0.0114357
threshold=1.0000000180025095e-35 1.5000000000000002 1.0000000180025095e-35 4.0000000000000009 600.00000000000011 1.5000000000000002 1.0000000180025095e-35 600.00000000000011 7.5000000000000009 2.5000000000000004 600.00000000000011 4.0000000000000009 9.5000000000000018 7.5000000000000009 9.5000000000000018 10.500000000000002 2.5000000000000004 1.5000000000000002 4.0000000000000009 8.5000000000000018 11.500000000000002 1.0000000180025095e-35 7.5000000000000009 1.5000000000000002 600.00000000000011 7.5000000000000009 4.0000000000000009 7.5000000000000009 9.5000000000000018 600.00000000000011
decision_type=2 2 2 2 2 2 2 2 2 2 2 2 2 2 2 2 2 2 2 2 2 2 2 2 2 2 2 2 2 2
left_child=5 2 8 4 28 6 -1 11 -2 10 18 19 13 -9 -12 -6 17 27 -10 -8 21 25 -23 -24 -25 -5 -14 -13 -4 -3
right_child=1 29 3 20 15 -7 7 12 9 -11 14 16 26 -15 -16 -17 -18 -19 -20 -21 -22 22 23 24 -26 -27 -28 -29 -30 -31
leaf_value=-0.065077724110506982 -0.068880779725868882 -0.068919836998413975 0.063743027266514665 0.062660487105006851 -0.092347075289966635 -0.064907503769095251 0.013625197790334199 -0.070276361232874604 -0.017568032910393695 -0.071069046105224007 -0.02126728014387138 -0.015274343073513719 -0.06511489999405741 -0.017458574535171113 -0.068913547551103904 -0.051426866661726661 0.0017516541275507476 -0.047985009120605673 0.002385185341373882 -0.0057830486642223549 0.06670768983216277 0.06334338176865234 0.053867859608435514 0.06121496304494322 0.055317499758975944 0.06612417228947097 -0.071079044604215338 -0.019858161276428848 0.066397832921858482 -0.066822192579515466
leaf_weight=23.793602459132671 7.1154294088482848 13.381118036806583 17.105141468346122 10.668245613574983 5.8040654212236387 35.497032485902309 6.7122633904218656 5.4538438022136715 6.5534115433692968 3.9361503198742858 5.216621994972229 5.6383083164691978 2.6681130304932577 9.0770722329616529 4.2775138914585114 3.1425209194421768 4.3817949444055548 6.5094553083181372 7.8670143187046051 6.6958865970373154 15.827829480171202 21.564705029129982 17.203296430408955 19.839192263782024 18.636725030839443 13.522634014487265 6.2509371191263199 6.0905399024486542 14.309362724423407 12.63016702234745
leaf_count=224 60 112 31 20 39 336 25 45 33 32 30 26 25 48 36 17 18 38 33 31 28 40 36 38 38 24 50 30 25 112
internal_value=-2.96327e-05 0.0249828 0.0375278 0.0539222 0.0332708 -0.0460665 -0.038035 -0.0272168 -0.0363764 -0.0280721 -0.0209951 -0.0127404 -0.0494582 -0.0372825 -0.042734 -0.0779737 -0.0226237 -0.0284799 -0.00668262 0.00393293 0.0610302 0.0601443 0.05875 0.0569709 0.0583584 0.0645967 -0.0692949 -0.0176546 0.0649523 -0.0679013
internal_weight=337.37 218.601 192.59 157.624 40.3611 118.769 83.2718 59.4782 34.9661 27.8507 23.9146 36.0282 23.45 14.5309 9.49414 8.94659 22.6201 18.2383 14.4204 13.4081 117.263 101.435 77.2439 55.6792 38.4759 24.1909 8.91905 11.7288 31.4145 26.0113
internal_count=1680 784 560 336 112 896 560 336 224 164 132 168 168 93 66 56 112 94 66 56 224 196 152 112 76 44 75 56 56 224
is_linear=0
shrinkage=0.05


Tree=18
num_leaves=31
num_cat=0
split_feature=8 4 4 7 4 4 3 3 3 2 2 2 2 2 2 3 7 7 3 7 9 9 2 2 3 2 3 7 2 9
split_gain=143.833 94.7675 86.7427 8.69193 7.15217 9.55767 7.24076 2.56068 2.49034 2.72124 4.62996 2.35321 3.4371 2.18278 4.61706 1.4465 1.27806 0.666578 0.377544 0.319923 0.190537 0.165135 0.0923359 0.0574348 0.0566335 0.0832096 0.0541846 0.0421378 0.0315369 0.00601844
threshold=1.0000000180025095e-35 1.5000000000000002 1.0000000180025095e-35 4.0000000000000009 1.5000000000000002 1.0000000180025095e-35 1.5000000000000002 1.0000000180025095e-35 1.0000000180025095e-35 1.5000000000000002 2.5000000000000004 2.5000000000000004 1.5000000000000002 1.0000000180025095e-35 1.5000000000000002 1.5000000000000002 4.0000000000000009 4.0000000000000009 1.0000000180025095e-35 4.0000000000000009 1.0000000180025095e-35 1.0000000180025095e-35 1.0000000180025095e-35 1.5000000000000002 1.5000000000000002 1.5000000000000002 1.5000000000000002 4.0000000000000009 1.5000000000000002 1.0000000180025095e-35
decision_type=2 2 2 2 2 2 2 2 2 2 2 2 2 2 2 2 2 2 2 2 2 2 2 2 2 2 2 2 2 2
left_child=4 2 7 26 5 -1 8 -2 -7 16 -11 12 15 -8 -15 19 -10 -17 -5 -9 22 -18 -20 -24 25 -22 28 -14 -4 -6
right_child=1 -3 3 18 29 6 13 11 9 10 -12 -13 27 14 -16 17 21 -19 20 -21 24 -23 23 -25 -26 -27 -28 -29 -30 -31
leaf_value=-0.064130775268226817 -0.073120639084400682 -0.066726908339491339 0.028956447268515664 0.052230676897726196 -0.063491797447752227 0.0056049641495105702 -0.076869918921837727 -0.037015799240118601 0.0096816018619634604 -0.060972608946322296 -0.00055140182548121754 -0.069740464343862177 -0.0010614343639410884 -0.0095228768690711479 -0.073915742203698884 -0.073745644297774679 -0.025577709102908477 -0.04315757390976481 0.066621817369233227 -0.017800591051253471 0.054132711255179593 -0.013199794825715205 0.05945994499232108 0.063322631093008661 0.060520697127882911 0.059676724406280683 0.034922227618292279 -0.0071870060554872148 0.032545002471141074 -0.06488572648595059
leaf_weight=22.958847142755985 3.9257746785879126 25.167021848261356 10.465360477566721 14.738472037017344 22.415853396058083 11.027003854513167 6.2369196489453342 3.9922677874565142 6.0604579746723219 8.6149555519223195 5.0169954672455779 3.3527731746435157 5.5524331629276276 5.8924095928668958 5.2765420898795128 3.2268556356430063 5.0683910325169563 3.9752958342432976 12.578449383378027 4.7358187437057495 13.022259742021562 5.7530484572052956 16.57053579390049 22.955056115984917 20.013283632695675 14.092254050076006 14.143308565020559 5.6789625138044357 14.753146603703497 11.830455303192137
leaf_count=224 32 224 31 32 224 48 48 28 28 60 24 28 28 30 42 26 28 26 22 28 28 28 32 42 40 28 39 28 42 112
internal_value=-2.90284e-05 0.0243843 0.0365958 0.0527018 -0.0447855 -0.0367627 -0.0261033 -0.03511 -0.0147599 -0.0221193 -0.0387357 -0.0302198 -0.0253415 -0.0531754 -0.039944 -0.0402761 -0.00870174 -0.0568623 0.0596979 -0.0265897 0.0608069 -0.0189972 0.0628906 0.0617033 0.0585032 0.0570141 0.0324451 -0.00415872 0.0310558 -0.0639733
internal_weight=329.091 212.939 187.772 153.332 116.152 81.9056 58.9467 34.4402 41.5409 30.5138 13.632 30.5144 27.1616 17.4059 11.169 15.9302 16.8819 7.20215 113.97 8.72809 99.2318 10.8214 52.104 39.5256 47.1278 27.1145 39.3618 11.2314 25.2185 34.2463
internal_count=1680 784 560 336 896 560 336 224 216 168 84 192 164 120 72 108 84 52 224 56 192 56 96 74 96 56 112 56 73 336
is_linear=0
shrinkage=0.05


Tree=19
num_leaves=31
num_cat=0
split_feature=8 4 4 7 4 4 3 0 3 3 0 0 0 1 0 0 1 2 7 7 0 3 0 3 0 0 0 0 0 7
split_gain=133.005 88.0321 80.3517 8.54663 7.12814 9.38726 6.76293 3.68726 3.35301 2.26705 4.50046 2.39388 2.19884 1.50745 1.14775 2.7186 1.60921 3.85711 0.995523 0.992509 0.734789 0.374954 0.204515 0.22757 0.289186 0.129639 0.263127 0.129294 0.0427175 0.0405201
threshold=1.0000000180025095e-35 1.5000000000000002 1.0000000180025095e-35 4.0000000000000009 1.5000000000000002 1.0000000180025095e-35 1.5000000000000002 7.5000000000000009 1.0000000180025095e-35 1.0000000180025095e-35 8.5000000000000018 7.5000000000000009 7.5000000000000009 1.0000000180025095e-35 8.5000000000000018 9.5000000000000018 1.0000000180025095e-35 1.5000000000000002 4.0000000000000009 4.0000000000000009 10.500000000000002 1.0000000180025095e-35 9.5000000000000018 1.5000000000000002 7.5000000000000009 9.5000000000000018 7.5000000000000009 10.500000000000002 8.5000000000000018 4.0000000000000009
decision_type=2 2 2 2 2 2 2 2 2 2 2 2 2 2 2 2 2 2 2 2 2 2 2 2 2 2 2 2 2 2
left_child=4 2 7 25 5 -1 9 -2 -9 20 11 19 -8 28 29 -16 17 -17 -12 -11 -7 -5 23 24 -23 26 -4 -20 -14 -10
right_child=1 -3 3 21 -6 6 12 8 14 10 18 -13 13 -15 15 16 -18 -19 27 -21 -22 22 -24 -25 -26 -27 -28 -29 -30 -31
leaf_value=-0.063255706844806636 -0.066904704380016583 -0.065649231171668751 0.034036327165238918 0.050899106997238423 -0.063109176028861166 0.020238200958388304 -0.023834137901312266 -0.072277807933213534 -0.032727470669185924 -0.0038935075723913306 -0.072367936361468252 0.0096013822424666339 -0.080246704553779524 -0.03623040944817129 0.015650274813544893 -0.0029264813975867707 0.00052522976587391929 -0.073696286327206553 -0.043656397575564519 -0.037272922005800797 -0.0058443024986294502 0.060014741103065233 0.062441857406153323 0.061947186180600848 0.051302370886182572 0.034305553057466902 0.022826934530867867 -0.030365728506721923 -0.07244470018914384 -0.040549503838477191
leaf_weight=22.133547008037567 6.7446702197194091 24.322556637227535 10.631546825170519 14.377088114619253 33.010785922408104 4.7222922295331937 5.0623166188597706 3.3731717914342907 3.2484893575310734 3.5029708668589628 2.942589230835436 10.267992556095123 2.4980861470103246 3.6376948505640021 5.8028106987476376 3.7336330190300924 3.7465416491031647 3.9752791076898575 4.3412119150161743 6.1137462258338928 6.3061828464269638 18.10359650850296 37.485591031610966 20.637273423373699 20.098876133561134 17.965081088244915 10.314436912536619 3.1632291972637177 5.8933428451418877 3.3766286224126816
leaf_count=224 60 224 30 32 336 18 30 28 20 18 24 42 18 24 24 20 20 32 28 36 30 36 72 40 44 50 32 20 48 20
internal_value=-3.11719e-05 0.0237376 0.0355782 0.0513462 -0.0435398 -0.0355235 -0.0250223 -0.0338046 -0.0256139 -0.0140893 -0.0211479 -0.00718789 -0.0514793 -0.0631135 -0.0190233 -0.0122322 -0.0263562 -0.0394206 -0.0477193 -0.0251142 0.00532399 0.0584312 0.0595554 0.0577165 0.055431 0.0311893 0.0285165 -0.0380542 -0.0747673 -0.0367141
internal_weight=321.533 207.937 183.615 149.613 113.596 80.5852 58.4517 34.0012 27.2566 41.3602 30.3317 19.8847 17.0914 12.0291 23.8834 17.2583 11.4555 7.70891 10.447 9.61672 11.0285 110.702 96.3253 58.8397 38.2025 38.9111 20.946 7.50444 8.39143 6.62512
internal_count=1680 784 560 336 896 560 336 224 164 216 168 96 120 90 136 96 72 52 72 54 48 224 192 120 80 112 62 48 66 40
is_linear=0
shrinkage=0.05


Tree=20
num_leaves=31
num_cat=0
split_feature=4 4 5 7 3 5 3 2 1 3 3 2 7 2 2 2 2 9 7 3 2 1 7 3 2 3 2 7 2 2
split_gain=107.433 92.6446 12.0001 46.7576 2.81458 1.65539 1.88692 1.65623 1.53959 1.68587 1.32888 1.02071 0.717988 0.654513 0.572746 0.75168 0.427975 0.412045 0.393805 0.341532 1.40206 0.330901 0.16796 0.142294 0.813352 0.0756493 0.0746416 0.0730883 0.0434284 0.0130478
threshold=1.5000000000000002 1.0000000180025095e-35 600.00000000000011 4.0000000000000009 1.0000000180025095e-35 600.00000000000011 1.0000000180025095e-35 2.5000000000000004 1.0000000180025095e-35 1.5000000000000002 1.0000000180025095e-35 1.5000000000000002 4.0000000000000009 2.5000000000000004 2.5000000000000004 1.5000000000000002 1.0000000180025095e-35 1.0000000180025095e-35 4.0000000000000009 1.5000000000000002 1.5000000000000002 1.0000000180025095e-35 4.0000000000000009 1.5000000000000002 1.0000000180025095e-35 1.5000000000000002 1.5000000000000002 4.0000000000000009 1.0000000180025095e-35 1.5000000000000002
decision_type=2 2 2 2 2 2 2 2 2 2 2 2 2 2 2 2 2 2 2 2 2 2 2 2 2 2 2 2 2 2
left_child=1 5 10 16 -5 6 -1 8 9 22 -3 -7 -11 -13 15 18 -4 26 -12 20 -18 27 -8 -20 -25 29 28 -17 -6 -19
right_child=-2 2 3 4 17 11 7 -9 -10 12 14 13 -14 -15 -16 21 19 25 23 -21 -22 -23 -24 24 -26 -27 -28 -29 -30 -31
leaf_value=-0.07006940087191442 -0.063306677197310562 0.050917664020601494 -0.081725375064451974 0.003780205025081747 0.040425846765623913 -0.064848486068027331 -0.028307666462230048 -0.066675610797784349 0.0025343541288098716 -0.07034283610369256 0.043963730108561298 -0.037346715080614809 -0.038197012686709782 -0.062811042141898601 0.045610173917762939 0.035498681697392197 -0.041581367055581749 0.030672874134600549 0.032245128632140067 -0.046896658147985527 -0.081312591995262584 0.018519013827907188 -0.017058263483463915 0.028985542359876722 0.050581669182413969 0.034463787920504502 0.04229739459354126 0.02912686903823844 0.035431556517982764 0.027908993892780589
leaf_weight=3.6819458603858974 55.275956258177757 20.289086893200874 2.7376004680991164 7.7457502335309973 7.3736054524779329 11.418882407248022 6.3114758878946393 3.0401793941855422 3.6219198107719413 3.1617051512002936 20.519962832331657 9.2855318561196309 3.8549176901578903 3.4651350826025 15.736693128943442 7.1040125340223357 3.7575212195515615 8.6118778362870234 18.607152871787548 3.6032924354076377 5.4281995743513107 6.6262340620160094 6.9960220381617546 9.886928468942644 7.798820734024047 12.148354858160021 14.507772378623484 12.280253432691097 10.624776631593704 8.4697114080190641
leaf_count=32 560 47 22 32 22 112 44 28 20 28 54 76 28 36 42 21 24 28 56 24 42 24 44 32 20 40 42 40 32 28
internal_value=-3.35124e-05 0.0134862 0.0290051 0.0146613 0.0321907 -0.044205 -0.0364929 -0.0319118 -0.0274982 -0.0328503 0.0392648 -0.0539907 -0.052682 -0.0442669 0.036866 0.0352045 -0.0637832 0.0357552 0.0384276 -0.0599426 -0.0650601 0.0281648 -0.0223936 0.0352974 0.0385087 0.0314476 0.0396287 0.031462 0.0374776 0.0293024
internal_weight=313.971 258.695 203.858 85.0085 69.4818 54.8377 30.6682 26.9862 23.946 20.3241 118.849 24.1695 7.01662 12.7507 98.5601 82.8234 15.5266 61.7361 56.8129 12.789 9.18572 26.0105 13.3075 36.2929 17.6857 29.2299 32.5062 19.3843 17.9984 17.0816
internal_count=1680 1120 672 336 224 448 224 192 164 144 336 224 56 112 289 247 112 192 162 90 66 85 88 108 52 96 96 61 54 56
is_linear=0
shrinkage=0.05


Tree=21
num_leaves=31
num_cat=0
split_feature=8 4 4 5 4 4 5 3 0 0 0 5 0 0 2 3 3 3 2 0 3 0 3 0 2 0 0 5 5 3
split_gain=121.412 77.4105 69.4487 7.84134 6.2423 8.16681 6.5044 6.80386 5.57392 3.64586 3.22282 2.87553 2.21659 3.79069 2.03509 1.00159 1.65605 0.912562 0.700508 0.434475 0.422255 0.414788 0.274374 0.235935 0.226661 0.115578 0.0197828 0.007277 0.00564196 0.00410236
threshold=1.0000000180025095e-35 1.5000000000000002 1.0000000180025095e-35 600.00000000000011 1.5000000000000002 1.0000000180025095e-35 600.00000000000011 1.0000000180025095e-35 9.5000000000000018 7.5000000000000009 11.500000000000002 600.00000000000011 9.5000000000000018 7.5000000000000009 1.5000000000000002 1.5000000000000002 1.0000000180025095e-35 1.5000000000000002 1.5000000000000002 9.5000000000000018 1.5000000000000002 9.5000000000000018 1.5000000000000002 7.5000000000000009 2.5000000000000004 9.5000000000000018 7.5000000000000009 600.00000000000011 600.00000000000011 1.5000000000000002
decision_type=2 2 2 2 2 2 2 2 2 2 2 2 2 2 2 2 2 2 2 2 2 2 2 2 2 2 2 2 2 2
left_child=4 2 9 23 5 -1 7 -7 18 27 11 22 13 -8 -13 16 -5 -10 20 26 -9 -17 -11 -4 25 -25 -18 -2 -3 -14
right_child=1 28 3 15 -6 6 12 8 17 10 -12 14 29 -15 -16 21 19 -19 -20 -21 -22 -23 -24 24 -26 -27 -28 -29 -30 -31
leaf_value=-0.061889134685761599 -0.066677913658560184 -0.064521659118883315 0.063940307761078202 0.0089085158308700608 -0.061556408933788304 0.028099305057617676 -0.068350532331869981 0.0024519782034553334 -0.042170279413865426 -0.0074728822323648558 -0.069834908402063259 -0.068526540769325142 -0.067833182449130058 -0.014541895688003324 -0.019839112607381717 0.036950141777073529 0.033567092228105659 -0.076216563670319301 -0.026833853219724924 0.044667460571060698 -0.014608098741841803 0.050168291895938855 0.007133251994472619 0.053563281164491321 0.064012087912259388 0.058583129516590421 0.030499487310072355 -0.0632845911805964 -0.062943089396627808 -0.065545502203019856
leaf_weight=20.708091668784618 3.3691372647881499 11.718119852244854 22.869627118110657 6.9537734612822524 30.578918814659119 8.1430233269929868 5.1818282008171108 8.9471019506454521 3.8736528828740111 9.4517193064093608 3.2168618515133849 3.475788377225399 5.1128316670656186 8.8855267614126188 5.6112510412931442 11.074848212301733 9.6666906252503448 4.0010976418852806 4.5603027045726767 9.7194611802697164 6.0998547822237006 12.788446143269537 4.872849330306054 20.580003902316093 12.223271608352659 25.893871180713177 11.517803728580473 2.975120022892952 10.949303634464741 3.1775949150323868
leaf_count=224 30 112 45 24 336 24 45 36 24 46 28 30 45 48 38 30 27 30 24 24 30 30 22 45 24 54 33 30 112 30
internal_value=-4.21976e-05 0.0232167 0.0344019 0.0494575 -0.0423855 -0.0349357 -0.0253096 -0.0120429 -0.0239372 -0.0310242 -0.0229088 -0.016461 -0.0464487 -0.0343628 -0.038462 0.0360113 0.0309543 -0.0594689 -0.00966681 0.0359149 -0.00446397 0.0440338 -0.00250425 0.0596322 0.0579536 0.0563602 0.0318993 -0.0650866 -0.0637591 -0.0669563
internal_weight=308.198 198.928 176.261 143.288 109.27 78.6909 57.9828 35.625 27.482 32.9727 26.6285 23.4116 22.3578 14.0674 9.08704 61.721 37.8577 7.87475 19.6073 30.904 15.047 23.8633 14.3246 81.5668 58.6971 46.4739 21.1845 6.34426 22.6674 8.29043
internal_count=1680 784 560 336 896 560 336 168 144 224 164 136 168 93 68 168 108 54 90 84 66 60 68 168 123 99 60 60 224 75
is_linear=0
shrinkage=0.05


Tree=22
num_leaves=31
num_cat=0
split_feature=8 9 5 7 5 3 9 7 9 2 2 2 2 3 2 2 3 3 9 7 2 2 2 3 3 5 2 2 3 3
split_gain=112.5 24.5006 14.6613 38.4957 4.48928 5.62218 2.49641 1.98601 1.785 1.16401 1.08562 1.16789 1.03593 0.973441 1.22973 0.768156 0.759547 0.723518 0.310375 0.332332 0.236255 4.7069 0.198616 0.456757 0.148646 0.286307 0.135519 0.160848 0.099415 0.0755051
threshold=1.0000000180025095e-35 1.0000000180025095e-35 600.00000000000011 4.0000000000000009 600.00000000000011 1.0000000180025095e-35 1.0000000180025095e-35 4.0000000000000009 1.0000000180025095e-35 1.5000000000000002 1.5000000000000002 2.5000000000000004 2.5000000000000004 1.5000000000000002 1.5000000000000002 1.0000000180025095e-35 1.0000000180025095e-35 1.5000000000000002 1.0000000180025095e-35 4.0000000000000009 1.5000000000000002 2.5000000000000004 1.5000000000000002 1.5000000000000002 1.5000000000000002 600.00000000000011 1.5000000000000002 1.0000000180025095e-35 1.5000000000000002 1.0000000180025095e-35
decision_type=2 2 2 2 2 2 2 2 2 2 2 2 2 2 2 2 2 2 2 2 2 2 2 2 2 2 2 2 2 2
left_child=4 2 29 9 5 8 7 10 -1 -4 17 -12 -11 14 15 -6 -5 -7 19 -16 28 -22 23 -9 25 -3 27 -18 -8 -2
right_child=1 24 3 16 13 6 20 22 -10 12 11 -13 -14 -15 18 -17 26 -19 -20 -21 21 -23 -24 -25 -26 -27 -28 -29 -30 -31
leaf_value=-0.01594071529035531 0.021916953912132425 0.056106462469497569 -0.075132136614567524 0.0031566899828321202 -0.063450139771209099 -0.015534967239454169 -0.022770304231265564 -0.045856587119587927 0.024535081789025925 -0.04170398222719221 -0.067572760658240999 -0.02617447790334633 -0.076239554870740273 -0.063551495879875131 -0.061942674943683301 -0.031654841499852412 0.027147479822622306 -0.041352417409103864 -0.068282072493475052 -0.045564356170191195 -0.072064160611883588 0.016061089717195134 -0.067143480263255687 -0.068258305189409785 0.057117246215383721 0.046431627166235667 0.028022740372098089 0.017866020411590539 -0.012179858357934599 0.026297676131977012
leaf_weight=7.6687459200620633 11.342180371284483 15.602855868637562 9.5049958154559153 4.6636194214224806 2.2761574685573587 6.4400895088911074 4.5988133549690229 5.1688010245561582 4.2243145257234573 7.9044434502720815 4.3552181720733634 2.7982353866100311 2.9938016831874847 15.034784339368342 5.6525989845395106 11.482649728655815 8.0867482051253319 4.6899375915527344 4.4994815140962592 6.8512456640601158 3.2096233069896689 2.8701928034424782 6.468812867999076 4.0648714005947113 17.742104515433311 14.996660500764847 16.029665134847164 11.04123292863369 4.2767486944794655 74.077255815267563
leaf_count=48 47 36 84 24 24 42 28 42 16 57 42 21 27 160 63 96 33 39 42 63 28 14 63 39 40 36 63 48 26 289
internal_value=-4.46697e-05 0.0226329 0.0123955 -0.00649751 -0.0413001 -0.0323987 -0.0398917 -0.0473827 -0.00156405 -0.0623442 -0.0361815 -0.0513789 -0.0511911 -0.0531243 -0.0480281 -0.0369148 0.0221167 -0.0264138 -0.0570208 -0.0529685 -0.0228685 -0.0304615 -0.060425 -0.0557183 0.0534761 0.0513649 0.0246317 0.0217899 -0.0176672 0.025716
internal_weight=300.617 193.986 145.644 60.2245 106.631 60.8344 48.9413 33.986 11.8931 20.4032 18.2835 7.15345 10.8982 45.7969 30.7621 13.7588 39.8213 11.13 17.0033 12.5038 14.9554 6.07982 15.7025 9.23367 48.3416 30.5995 35.1576 19.128 8.87556 85.4194
internal_count=1680 784 672 336 896 448 384 288 64 168 144 63 84 448 288 120 168 81 168 126 96 42 144 81 112 72 144 81 54 336
is_linear=0
shrinkage=0.05


Tree=23
num_leaves=31
num_cat=0
split_feature=8 9 5 5 3 0 9 9 2 0 0 0 0 0 3 2 3 3 0 0 0 2 0 0 3 5 0 2 3 0
split_gain=103.546 23.3709 13.311 4.40452 5.24053 3.63752 2.10816 1.61482 1.55361 1.33359 1.70286 2.02311 1.17478 2.24438 2.2873 3.12272 1.0148 0.86491 0.857055 0.733402 0.591685 0.902788 0.285992 0.253931 0.151471 0.293765 0.103094 0.298857 0.10848 0.0971916
threshold=1.0000000180025095e-35 1.0000000180025095e-35 600.00000000000011 600.00000000000011 1.0000000180025095e-35 8.5000000000000018 1.0000000180025095e-35 1.0000000180025095e-35 2.5000000000000004 7.5000000000000009 6.5000000000000009 5.5000000000000009 9.5000000000000018 7.5000000000000009 1.5000000000000002 1.5000000000000002 1.0000000180025095e-35 1.5000000000000002 8.5000000000000018 8.5000000000000018 11.500000000000002 1.5000000000000002 10.500000000000002 9.5000000000000018 1.5000000000000002 600.00000000000011 9.5000000000000018 1.5000000000000002 1.5000000000000002 6.5000000000000009
decision_type=2 2 2 2 2 2 2 2 2 2 2 2 2 2 2 2 2 2 2 2 2 2 2 2 2 2 2 2 2 2
left_child=3 2 26 4 7 8 -7 22 9 10 11 -6 13 -5 15 -15 -4 -11 -17 29 21 -21 -1 -23 25 -3 -2 -28 -29 -18
right_child=1 24 16 12 5 6 -8 -9 -10 17 -12 -13 -14 14 -16 18 19 -19 -20 20 -22 23 -24 -25 -26 -27 27 28 -30 -31
leaf_value=-0.0036986580937712374 0.022979276136237733 0.055253288542478435 -0.023803500727324262 -0.062652661561911113 -0.074541137162838875 -0.065216277198002312 -0.031099946102363427 0.023356095496953135 0.0072081270540113943 -0.036326816896964452 -0.00531225623138215 -0.019562061781220368 -0.061934920944250564 0.0061527879924427632 -0.066148316022954165 -0.068990541798634161 -0.0052004405131510128 -0.070667418301172139 -0.031213386421380624 -0.0091403471482038989 -0.013709144259677411 0.020743582216044124 -0.023323322478993897 0.0073127428025762838 0.056259131700409554 0.045302872218399029 0.033815479061779168 0.021458513830693596 0.027821813860516048 -0.012079166698214303
leaf_weight=3.1718660593032819 46.160508923232555 15.065257728099823 7.2327071949839583 11.001589544117452 2.5829073116183316 14.181022107601168 6.6522640436887732 4.2158923894166946 3.0259926319122306 6.6104321628808975 7.7498363181948662 4.7512045875191689 17.866297453641891 5.3310050815343839 3.9311955943703643 2.4425780698657036 7.2625110447406795 2.5373567044734955 3.8963455408811569 7.3500706627965036 5.0362908169627181 5.5346979722380629 4.4766105264425278 9.6643330752849561 17.12769827246666 14.61165863275528 10.216514945030211 17.817699752748013 10.73178504407406 17.530644796788692
leaf_count=18 186 36 48 120 24 144 48 16 16 48 48 32 200 32 40 24 42 24 32 42 30 24 30 48 40 36 36 72 42 102
internal_value=-4.81036e-05 0.0218072 0.0118633 -0.0400948 -0.0312511 -0.0385934 -0.0543226 -0.0014897 -0.0265715 -0.0307898 -0.0216552 -0.0389244 -0.0520183 -0.0453583 -0.0331626 -0.0220509 -0.00624766 -0.045852 -0.0457701 -0.00382346 0.00178561 0.00524633 -0.0151849 0.0122036 0.052515 0.0503541 0.0245757 0.0264767 0.0238505 -0.0100642
internal_weight=295.767 191.342 144.538 104.424 59.9554 48.091 20.8333 11.8644 27.2577 24.2317 15.0839 7.33411 44.469 26.6027 15.6011 11.6699 59.6113 9.14779 6.33892 52.3785 27.5854 22.5491 7.64848 15.199 46.8046 29.6769 84.9265 38.766 28.5495 24.7932
internal_count=1680 784 672 896 448 384 192 64 192 176 104 56 448 248 128 88 336 72 56 288 144 114 48 72 112 72 336 150 114 144
is_linear=0
shrinkage=0.05


Tree=24
num_leaves=31
num_cat=0
split_feature=8 4 4 7 4 4 0 0 0 2 7 9 0 0 0 0 0 1 2 2 0 0 9 2 0 0 0 0 0 0
split_gain=95.2638 70.4287 64.0724 7.89086 6.74045 8.4247 3.39561 2.98838 2.17217 2.80315 2.29647 2.95121 2.20932 2.20177 1.1471 0.982939 2.49623 2.4567 3.04466 0.7928 0.53719 0.298237 0.325544 0.205967 0.181564 0.131467 0.247901 0.118358 0.0515077 0.031782
threshold=1.0000000180025095e-35 1.5000000000000002 1.0000000180025095e-35 4.0000000000000009 1.5000000000000002 1.0000000180025095e-35 7.5000000000000009 11.500000000000002 11.500000000000002 1.0000000180025095e-35 4.0000000000000009 1.0000000180025095e-35 9.5000000000000018 7.5000000000000009 12.500000000000002 8.5000000000000018 9.5000000000000018 1.0000000180025095e-35 1.5000000000000002 1.5000000000000002 9.5000000000000018 11.500000000000002 1.0000000180025095e-35 1.0000000180025095e-35 7.5000000000000009 9.5000000000000018 7.5000000000000009 9.5000000000000018 9.5000000000000018 7.5000000000000009
decision_type=2 2 2 2 2 2 2 2 2 2 2 2 2 2 2 2 2 2 2 2 2 2 2 2 2 2 2 2 2 2
left_child=4 2 6 25 5 -1 -2 15 9 13 20 12 -12 -7 -10 -8 -17 18 -18 -13 -11 22 23 -5 -25 26 -4 29 -26 -24
right_child=1 -3 3 21 -6 8 7 -9 14 10 11 19 -14 -15 -16 16 17 -19 -20 -21 -22 -23 27 24 28 -27 -28 -29 -30 -31
leaf_value=-0.060182510137304183 -0.064453122561564144 -0.06318313010077535 0.030006108204243594 0.062205285381759248 -0.060016474210555865 -0.020530360206828649 -0.033684011602874243 -0.069143311218150053 -0.028517367672931823 -0.0039869962035839861 -0.026378929194972159 0.0045531717020295221 -0.074629896563032636 -0.070011973143559614 -0.074181839020995108 0.016011470521199406 -0.0097704754513185717 0.012330801599910695 -0.07195847305956786 -0.018189529215549633 0.015952596669627266 0.061492366255910758 0.053924663186724821 0.060128334418992992 0.049855088860467488 0.030452255057398927 0.018713071784079001 0.046347634928146031 0.054363292353119444 0.050378766648306872
leaf_weight=18.688101999461651 6.1443699300289145 21.987114436924458 9.7864275425672549 11.097162023186682 27.69313845038414 4.8773045688867551 6.4130602553486886 3.1187628209590903 2.7654529511928549 8.9993994906544668 8.187657564878462 7.6270334050059319 3.3402362838387498 4.1705078482627869 2.735736072063446 5.7629044800996807 4.1089020818471891 3.2092242762446404 3.7777402549982071 7.7011160627007484 5.4074190258979788 13.250305794179438 12.300012290477754 9.9245828762650472 12.441734209656715 16.648596875369549 9.6527408957481367 13.810116015374659 12.910347037017345 12.996400535106657
leaf_count=224 60 224 30 22 336 30 40 28 18 48 48 34 28 36 24 24 24 16 32 42 28 28 30 20 28 50 32 36 28 32
internal_value=-5.0103e-05 0.0209479 0.0320012 0.0471993 -0.0389547 -0.0311256 -0.0309767 -0.0231825 -0.0213961 -0.0181344 -0.0126078 -0.0212472 -0.0403598 -0.0433385 -0.0512263 -0.0170231 -0.0106853 -0.0245509 -0.0395588 -0.00687314 0.00349708 0.0545125 0.0534306 0.0562641 0.0543952 0.0271913 0.0243984 0.0500705 0.0521509 0.0521029
internal_weight=291.534 189.341 167.353 134.818 102.193 74.5 32.535 26.3906 55.8119 50.3107 41.2629 26.856 11.5279 9.04781 5.50119 23.2718 16.8588 11.0959 7.88664 15.3281 14.4068 98.7307 85.4804 46.3738 35.2767 36.0878 19.4392 39.1065 25.3521 25.2964
internal_count=1680 784 560 336 896 560 224 164 336 294 228 152 76 66 42 136 96 72 56 76 76 224 196 98 76 112 62 98 56 62
is_linear=0
shrinkage=0.05


Tree=25
num_leaves=31
num_cat=0
split_feature=8 9 5 7 5 3 0 9 9 2 0 9 7 0 0 3 2 2 2 3 0 0 0 2 2 2 0 3 5 0
split_gain=88.151 21.0555 12.4352 34.538 4.43053 4.8798 3.50271 2.16263 1.46104 1.44142 1.25039 1.62228 3.81184 1.20209 2.29847 2.23024 2.90808 1.13381 0.995102 0.859147 0.856483 0.274563 0.251236 0.243069 0.260729 0.265853 0.224478 0.162142 0.321261 0.0929892
threshold=1.0000000180025095e-35 1.0000000180025095e-35 600.00000000000011 4.0000000000000009 600.00000000000011 1.0000000180025095e-35 8.5000000000000018 1.0000000180025095e-35 1.0000000180025095e-35 2.5000000000000004 7.5000000000000009 1.0000000180025095e-35 4.0000000000000009 9.5000000000000018 7.5000000000000009 1.5000000000000002 1.5000000000000002 1.5000000000000002 2.5000000000000004 1.5000000000000002 8.5000000000000018 9.5000000000000018 10.500000000000002 2.5000000000000004 1.5000000000000002 1.0000000180025095e-35 9.5000000000000018 1.5000000000000002 600.00000000000011 9.5000000000000018
decision_type=2 2 2 2 2 2 2 2 2 2 2 2 2 2 2 2 2 2 2 2 2 2 2 2 2 2 2 2 2 2
left_child=4 2 29 17 5 8 9 -8 22 10 11 12 -7 14 -6 16 -16 -4 21 -12 -18 -19 -1 24 25 -5 -26 28 -3 -2
right_child=1 27 3 23 13 6 7 -9 -10 -11 19 -13 -14 -15 15 -17 20 18 -20 -21 -22 -23 -24 -25 26 -27 -28 -29 -30 -31
leaf_value=-0.002444633993003013 0.02194497439495793 0.053697968701660881 -0.073770415500251915 0.025537379676204099 -0.061578493289903717 -0.0059008705701267521 -0.063740448987178205 -0.028467994352088008 0.0235735205591221 0.0083053184993719022 -0.033878004272436993 0.0039151367666190344 -0.06942612816912852 -0.060706795029157629 0.007237475785735796 -0.064705101736455495 -0.067512902621960899 -0.028796542962217425 -0.074974565111445166 -0.068957452748772394 -0.028821727291094237 -0.048052189401252686 -0.020997828003225489 0.010995130863560063 0.034946502389731016 0.01348917630566647 0.022198418992780147 0.054696368693447718 0.042961223558967275 0.025314542415197629
leaf_weight=3.1258566752076131 44.898872248828411 14.061008132994175 9.0468547418713587 7.8162790685892114 10.312545984983446 5.905221641063692 13.257184021174909 6.4647035747766486 4.1917241513729095 2.9957881048321715 6.4317603707313538 4.8966949656605729 3.9350832477211952 16.613491766154766 5.2689343988895398 3.6872021257877341 2.307787224650383 3.093230873346327 2.8335471600294113 2.3955130875110626 3.7618608027696609 4.6106537580490112 4.3834142759442329 5.5103953778743735 5.8622637763619414 11.053764380514622 8.4031477272510511 15.972971834242342 13.80970773100853 37.639620631933212
leaf_count=18 186 36 84 33 120 39 144 48 16 16 48 26 39 200 32 40 24 21 27 24 32 36 30 27 21 51 36 40 36 150
internal_value=-5.23275e-05 0.0204232 0.0109994 -0.0066934 -0.0378773 -0.0289223 -0.0362157 -0.0521784 -7.43577e-05 -0.0243627 -0.0285159 -0.0196018 -0.0313043 -0.0502543 -0.0434009 -0.0309252 -0.0199403 -0.0607865 -0.0496393 -0.0433977 -0.0435328 -0.0403207 -0.0132748 0.020719 0.0223361 0.0184797 0.0274371 0.0506799 0.048378 0.0234816
internal_weight=284.547 184.612 140.769 58.2301 99.9348 57.9829 46.2819 19.7219 11.701 26.5601 23.5643 14.737 9.8403 41.9518 25.3383 15.0258 11.3386 19.5843 10.5374 8.82727 6.06965 7.70388 7.50927 38.6459 33.1355 18.87 14.2654 43.8437 27.8707 82.5385
internal_count=1680 784 672 336 896 448 384 192 64 192 176 104 78 448 248 128 88 168 84 72 56 57 48 168 141 84 57 112 72 336
is_linear=0
shrinkage=0.05


Tree=26
num_leaves=31
num_cat=0
split_feature=4 8 4 4 5 7 5 9 7 2 5 2 2 2 2 2 9 7 7 2 2 9 2 9 2 2 8 2 2 5
split_gain=82.935 70.0057 59.1687 8.42612 7.72035 44.8052 5.54752 2.24208 9.06749 2.00345 1.75494 2.30042 0.894324 0.841699 1.87989 0.597426 0.565776 0.655711 0.438976 0.850866 0.205981 0.202961 0.164234 0.142083 0.099078 0.0820611 0.0541725 0.0374985 0.0212024 0.0151329
threshold=1.5000000000000002 1.0000000180025095e-35 1.0000000180025095e-35 1.0000000180025095e-35 600.00000000000011 4.0000000000000009 600.00000000000011 1.0000000180025095e-35 4.0000000000000009 2.5000000000000004 600.00000000000011 1.5000000000000002 1.5000000000000002 1.0000000180025095e-35 1.5000000000000002 1.5000000000000002 1.0000000180025095e-35 4.0000000000000009 4.0000000000000009 1.5000000000000002 1.0000000180025095e-35 1.0000000180025095e-35 1.5000000000000002 1.0000000180025095e-35 1.0000000180025095e-35 1.5000000000000002 1.0000000180025095e-35 1.5000000000000002 1.5000000000000002 600.00000000000011
decision_type=2 2 2 2 2 2 2 2 2 2 2 2 2 2 2 2 2 2 2 2 2 2 2 2 2 2 2 2 2 2
left_child=1 3 9 -1 21 15 7 8 22 10 18 -12 -10 -8 -15 -6 17 -16 19 -3 -7 24 -5 -22 -4 -20 -2 -26 -23 -28
right_child=26 2 4 6 5 20 13 -9 12 -11 11 -13 -14 14 16 -17 -18 -19 25 -21 23 28 -24 -25 27 -27 29 -29 -30 -31
leaf_value=-0.059175481158271807 -0.059103741886296093 -0.040374328442799173 0.062480957933495784 0.013592689081138748 -0.085899802491222421 0.057267742349575428 -0.063635878764596351 0.0086831083536898848 -0.044621434639554473 -0.065043671249813834 -0.064218683066631754 -0.018496813501694364 -0.078614906597450046 -0.017346852441837129 -0.061813948208790992 -0.05977578710494226 -0.068058566157954345 -0.028452679443855072 -0.0046413653383435552 -0.0076494743282890998 0.051947356982918746 0.050682442521738827 0.0023021707192675094 0.045806263151075909 0.055057438897721495 -0.014124962919625037 -0.063757383641644863 0.058197804443087135 0.053869917820157369 -0.061078603621038001
leaf_weight=17.353836245834827 25.800934419035912 4.1086119264364251 10.508717298507689 6.9005571007728594 4.0822689533233625 9.909043148159979 3.1814779713749912 13.716441929340361 4.3146466687321654 3.6782832220196715 5.5218054205179232 5.4825581833720207 3.507890447974205 7.694597780704501 2.4723686128854734 4.7175453007221222 3.1367088705301285 3.6433678492903709 5.4803065434098244 3.845323733985424 20.856184139847755 10.256309576332571 6.0402144864201546 17.174863718450069 15.084637150168417 3.9073710665106773 11.368478894233704 25.703510977327824 10.618461236357687 9.8315364569425583
leaf_count=224 336 28 22 28 28 22 33 56 28 36 56 38 28 51 28 28 28 28 28 19 45 28 28 45 34 19 112 56 28 112
internal_value=-5.70804e-05 0.0121696 0.0305003 -0.0288252 0.045611 0.0318109 -0.0191802 -0.00700394 -0.017367 -0.0303266 -0.0258216 -0.0414393 -0.0598653 -0.0400379 -0.0356078 -0.0718948 -0.0507942 -0.0419394 -0.0159111 -0.0245535 0.050847 0.0564603 0.00832274 0.049174 0.0581518 -0.00858866 -0.0606425 0.0570364 0.0523038 -0.0625151
internal_weight=279.899 232.898 160.936 71.9621 128.912 56.7399 54.6083 34.4798 20.7633 32.0243 28.346 11.0044 7.82254 20.1285 16.947 8.79981 9.25245 6.11574 17.3416 7.95394 47.9401 72.1716 12.9408 38.031 51.2969 9.38768 47.0009 40.7881 20.8748 21.2
internal_count=1680 1120 560 560 336 168 336 168 112 224 188 94 56 168 135 56 84 56 94 47 112 168 56 90 112 47 560 90 56 224
is_linear=0
shrinkage=0.05


Tree=27
num_leaves=31
num_cat=0
split_feature=4 8 4 4 5 7 3 5 3 3 2 2 2 5 2 3 2 2 3 9 7 2 9 9 2 2 5 7 8 2
split_gain=77.8574 64.8851 55.1766 8.24313 7.4507 41.4075 5.38321 3.55438 2.94789 2.29512 2.18053 4.13083 1.89301 1.80864 2.05596 1.05548 0.772648 8.01556 0.666265 0.652325 0.405256 0.663705 0.186404 0.175704 0.13945 0.101315 0.0753651 0.0619895 0.0450612 0.0378688
threshold=1.5000000000000002 1.0000000180025095e-35 1.0000000180025095e-35 1.0000000180025095e-35 600.00000000000011 4.0000000000000009 1.5000000000000002 600.00000000000011 1.0000000180025095e-35 1.0000000180025095e-35 1.0000000180025095e-35 1.5000000000000002 1.5000000000000002 600.00000000000011 1.5000000000000002 1.5000000000000002 1.5000000000000002 2.5000000000000004 1.5000000000000002 1.0000000180025095e-35 4.0000000000000009 1.5000000000000002 1.0000000180025095e-35 1.0000000180025095e-35 1.5000000000000002 1.0000000180025095e-35 600.00000000000011 4.0000000000000009 1.0000000180025095e-35 1.5000000000000002
decision_type=2 2 2 2 2 2 2 2 2 2 2 2 2 2 2 2 2 2 2 2 2 2 2 2 2 2 2 2 2 2
left_child=1 3 9 -1 22 15 7 8 -5 -3 26 -12 -9 20 -15 -6 -10 -18 23 -14 21 -11 25 -7 -22 -4 -8 -16 -2 -27
right_child=28 2 4 6 5 18 10 12 16 13 11 -13 19 14 27 -17 17 -19 -20 -21 24 -23 -24 -25 -26 29 -28 -29 -30 -31
leaf_value=-0.058651031184246021 -0.058584998744662067 -0.06811464938636011 0.061726446978297933 0.027639632491137614 -0.083459368059229835 0.048601450839355562 -0.074789646894579564 -0.0098960947069556236 0.00011293539914607237 -0.037466352617516886 -0.0014108329501016194 -0.066543935073024821 -0.036089491367640163 -0.063450276121174834 -0.014488659032700482 -0.047997279963404013 -0.072634164263721254 0.032973817023319911 0.057422333403399722 -0.068166228576291454 -0.0021611860014757811 -0.0084837465255346769 0.051557259301949127 0.040784533717811267 -0.014461186497872914 0.054096181563541651 -0.062650426944522705 -0.024882583448536482 -0.061758512420726108 0.05730549744831679
leaf_weight=16.651339270174503 24.754403911530972 3.3878660798072842 10.115278244018553 8.0564447194337863 5.1735601872205716 15.97505246847868 3.0629022791981688 6.8423693403601629 9.649026885628702 3.9157286137342462 5.5702673345804197 4.3239203467965126 4.8121766224503517 5.1510391905903834 2.7229900881648064 3.529895156621933 3.713403992354869 3.4809847548604012 17.553454056382179 2.3634131625294685 5.329357735812664 3.9862344264984131 20.136972606182098 13.070315159857273 4.0597415491938591 14.597450852394102 2.1947681680321693 3.0315337032079697 20.406821556389332 24.820976793766022
leaf_count=224 336 32 22 24 36 36 24 45 42 27 30 42 42 54 21 20 30 12 40 21 27 21 56 36 21 34 24 21 224 56
internal_value=-5.6334e-05 0.0118585 0.0298141 -0.0278905 0.0447366 0.0310336 -0.0184174 -0.00857341 0.0027642 -0.0292307 -0.043702 -0.0298751 -0.0287122 -0.0245587 -0.0405041 -0.0690769 -0.00913407 -0.021536 0.0497317 -0.0466546 -0.0145019 -0.0228457 0.0556135 0.0450839 -0.00747957 0.0572625 -0.0697222 -0.0199643 -0.060019 0.056117
internal_weight=272.44 227.278 156.557 70.721 124.973 55.3023 54.0697 38.9178 24.8999 31.5845 15.1519 9.89419 14.018 28.1966 10.9056 8.70346 16.8434 7.19439 46.5988 7.17559 17.2911 7.90196 69.6707 29.0454 9.3891 49.5337 5.25767 5.75452 45.1612 39.4184
internal_count=1680 1120 560 560 336 168 336 216 108 224 120 72 108 192 96 56 84 42 112 63 96 48 168 72 48 112 48 42 560 90
is_linear=0
shrinkage=0.05


Tree=28
num_leaves=31
num_cat=0
split_feature=4 8 4 4 5 7 5 0 0 0 9 7 0 1 0 0 0 0 0 0 0 0 9 0 9 8 0 0 5 5
split_gain=73.1381 60.1813 51.4833 8.04115 7.1861 38.311 4.92954 3.31153 2.28106 3.88003 2.01946 8.31417 1.74364 3.34017 1.44896 1.37499 1.22214 0.706238 0.302647 0.25422 0.236592 0.214127 0.180739 0.224251 0.146978 0.037617 0.0244617 0.0220283 0.0143183 0.0105898
threshold=1.5000000000000002 1.0000000180025095e-35 1.0000000180025095e-35 1.0000000180025095e-35 600.00000000000011 4.0000000000000009 600.00000000000011 7.5000000000000009 9.5000000000000018 7.5000000000000009 1.0000000180025095e-35 4.0000000000000009 10.500000000000002 1.0000000180025095e-35 8.5000000000000018 9.5000000000000018 10.500000000000002 8.5000000000000018 7.5000000000000009 8.5000000000000018 11.500000000000002 8.5000000000000018 1.0000000180025095e-35 9.5000000000000018 1.0000000180025095e-35 1.0000000180025095e-35 8.5000000000000018 8.5000000000000018 600.00000000000011 600.00000000000011
decision_type=2 2 2 2 2 2 2 2 2 2 2 2 2 2 2 2 2 2 2 2 2 2 2 2 2 2 2 2 2 2
left_child=1 3 7 -1 18 16 10 28 9 -8 11 19 14 -14 -9 -16 -6 -13 -4 -5 22 -12 23 -20 27 -2 -26 -7 -3 -27
right_child=25 2 4 6 5 24 8 12 -10 -11 21 17 13 -15 15 -17 -18 -19 20 -21 -22 -23 -24 -25 26 29 -28 -29 -30 -31
leaf_value=-0.058160710550866468 -0.058099857583621128 -0.065057353926364289 0.060201130116276438 0.015091613029923158 -0.08064555926938527 0.052830489869327382 -0.063516084012340865 -0.03032782491198982 -0.061584665277814192 -0.0054148722984771825 0.0016345148554051418 -0.043309859517309694 -0.067719592908281376 -0.0057036116707596153 0.016761777808717637 -0.019319877362595304 -0.041332586604107553 -0.073870810341261139 0.048368410515510385 0.001016122411577465 0.060179818981555125 0.01424999324267268 0.045794435423404702 0.057305068447416764 0.043531368961300887 -0.062134797018411181 0.047031450503394856 0.049853465101710882 -0.059973649458303163 -0.059805355789837811
leaf_weight=15.969386473298071 23.73874869197607 3.1859671324491527 18.72752970457077 6.6463820487260836 5.5036828070878965 11.483912892639639 4.3860981687903431 6.1868840157985749 6.6530290916562072 8.33194851875305 6.0550944954156858 4.0106723457574835 4.6314175724983198 4.08735740929842 5.7211823463439924 4.9032807946205139 3.085080161690712 3.5759091153740883 12.902188181877136 6.2007128745317459 8.7138741910457593 7.5670945346355438 11.488553054630755 15.396854288876057 8.9181225001811999 10.558063067495823 11.339020341634749 13.540198378264902 2.4503084495663643 9.0704370513558388
leaf_count=224 336 30 45 25 39 25 45 40 75 48 25 25 44 24 24 32 17 31 32 31 21 31 34 36 25 112 31 31 30 112
internal_value=-5.62546e-05 0.0115617 0.02915 -0.0270294 0.0438994 0.0302928 -0.0177242 -0.0281599 -0.0378621 -0.0254524 -0.0062698 -0.0162111 -0.020502 -0.0386465 -0.0110918 0.000109785 -0.0665244 -0.0577147 0.0548023 0.00829801 0.0527177 0.00864238 0.0510835 0.0532306 0.0486567 -0.0594389 0.0454906 0.0512197 -0.0628473 -0.0610583
internal_weight=265.029 221.662 152.265 69.3963 121.099 53.87 53.4269 31.1664 19.3711 12.718 34.0559 20.4337 25.5301 8.71877 16.8113 10.6245 8.58876 7.58658 67.229 12.8471 48.5015 13.6222 39.7876 28.299 45.2813 43.3672 20.2571 25.0241 5.63628 19.6285
internal_count=1680 1120 560 560 336 168 336 224 168 93 168 112 164 68 96 56 56 56 168 56 123 56 102 68 112 560 56 56 60 224
is_linear=0
shrinkage=0.05


Tree=29
num_leaves=31
num_cat=0
split_feature=4 8 4 4 5 7 3 0 5 0 0 3 0 0 5 5 0 0 7 3 0 7 0 3 0 9 0 9 5 8
split_gain=68.7377 55.8211 48.0633 7.85136 6.93468 35.4733 5.02782 3.21315 3.02023 2.85089 4.51734 2.66655 3.41921 2.02446 2.72764 1.70764 2.32539 1.17737 0.97863 0.708742 0.609633 0.652219 0.310127 0.246938 0.194478 0.179519 0.22943 0.146021 0.0471498 0.0314099
threshold=1.5000000000000002 1.0000000180025095e-35 1.0000000180025095e-35 1.0000000180025095e-35 600.00000000000011 4.0000000000000009 1.5000000000000002 7.5000000000000009 600.00000000000011 9.5000000000000018 7.5000000000000009 1.0000000180025095e-35 8.5000000000000018 9.5000000000000018 600.00000000000011 600.00000000000011 9.5000000000000018 10.500000000000002 4.0000000000000009 1.5000000000000002 10.500000000000002 4.0000000000000009 7.5000000000000009 1.0000000180025095e-35 9.5000000000000018 1.0000000180025095e-35 9.5000000000000018 1.0000000180025095e-35 600.00000000000011 1.0000000180025095e-35
